svm_type epsilon_svr
kernel_type rbf
gamma 0.125
nr_class 2
total_sv 595
rho 0.11388261080063704
SV
-1.0 1:-0.499481400681147 2:-0.496680124775911 3:-0.409619109340449 4:-0.429548221671446 5:-0.264543743565835 6:-0.4 7:-0.760567077973224 8:1.0 
-1.0 1:-0.492554071646312 2:-0.491503718634156 3:-0.514408859875051 4:-0.436352383356975 5:-0.291753672560432 6:-0.4 7:-0.906430053007606 8:1.0 
-1.0 1:-0.491582505462266 2:-0.485001996509825 3:-0.48682685922869 4:-0.304965963080215 5:-0.212951536263588 6:-0.2 7:-0.721352393918761 8:0.797640117994096 
1.0 1:-0.161647992460447 2:-0.228563047925781 3:-0.336252897348879 4:-0.216092643125451 5:0.0578320627537494 6:-0.2 7:0.584751531654192 8:-0.900294985250747 
1.0 1:-0.145940877495472 2:-0.303533873095017 3:-0.363816152346666 4:-0.255388213017538 5:-0.0596176248376241 6:-0.2 7:0.201321494941147 8:-0.638000620925169 
1.0 1:-0.0463393980824468 2:-0.33928769587319 3:-0.391021333682658 4:-0.26821168291252 5:-0.052253670104184 6:-0.2 7:0.371463968614495 8:-0.893821794473764 
1.0 1:0.0979922513601201 2:-0.24346391823809 3:-0.312273978053718 4:-0.293186559381775 5:-0.0199664057680543 6:0.0 7:0.672930002064833 8:-1.0 
1.0 1:0.0622500378093476 2:-0.265425099356221 3:-0.325249891137035 4:-0.285531774396309 5:-0.0635287913441648 6:-0.2 7:0.662192855667972 8:-0.986243386243387 
-1.0 1:-0.203836734007848 2:-0.220005611093819 3:-0.25191092496742 4:-0.274883765448703 5:-0.0843914310611067 6:-0.2 7:0.690687590336569 8:-1.0 
1.0 1:-0.0998380276917596 2:-0.142147517158478 3:-0.258553705990314 4:-0.254005352528296 5:-0.0580077637262486 6:0.0 7:0.754166666666666 8:-1.0 
1.0 1:0.164140514446589 2:0.0961145538670305 3:-0.149327204046352 4:-0.168533888655381 5:0.195393409696383 6:0.0 7:0.867942357665954 8:-1.0 
1.0 1:0.380374386741616 2:0.33594941991856 3:0.0469079147642759 4:-0.0172189454524427 5:0.35003588519838 6:0.2 7:0.796702827368244 8:-1.0 
1.0 1:0.492011182968834 2:0.385577814430399 3:0.0872767695664571 4:0.0178488490339925 5:0.287657782737653 6:0.4 7:0.794276309774161 8:-1.0 
1.0 1:0.36088722903303 2:0.118462950914655 3:0.0566969889025122 4:0.023711888023602 5:0.0271347858706692 6:0.4 7:0.536881419234361 8:-0.694957226474562 
1.0 1:0.317783811291645 2:0.160785842911192 3:0.100380244681709 4:5.423797384978E-4 5:-0.021882785030046 6:0.6 7:0.513353720693172 8:-0.691442542787289 
1.0 1:0.243665796190739 2:0.28962571969227 3:0.263343258036901 4:0.0576392857809009 5:0.16136313198177 6:0.6 7:0.963654320987656 8:-1.0 
1.0 1:0.0639675379091109 2:0.312855441680734 3:0.364927951195662 4:0.137531892604523 5:0.161101099301978 6:0.6 7:0.901189227002451 8:-1.0 
-1.0 1:-0.576486381283934 2:-0.051742495257354 3:0.0384755111356532 4:-0.108867921857755 5:-0.472985312962752 6:0.6 7:-0.307428762430014 8:0.225525168450255 
1.0 1:-0.0547872591979738 2:0.219474869744513 3:0.116197599994757 4:0.0938972152271214 5:0.0372934477700264 6:0.6 7:0.417761043254663 8:-0.550762910798124 
1.0 1:0.0703369762968389 2:0.275725485621752 3:0.22142092233499 4:0.182621601501606 5:0.108434858418664 6:0.6 7:0.580212194810178 8:-0.999029754204399 
1.0 1:-0.121568941186639 2:0.0977753795937411 3:0.22058844860802 4:0.226103760969414 5:0.061503203084313 6:0.8 7:0.690655758660362 8:-1.0 
-1.0 1:-0.12907867047287 2:-0.0243784117229449 3:0.235522929626206 4:0.301902852036893 5:0.0880707470541808 6:0.8 7:0.968622448979591 8:-1.0 
1.0 1:0.44412645333231 2:-0.0818126817093748 3:0.246731847858607 4:0.294902030795647 5:0.0282115530226572 6:0.8 7:0.863967992468816 8:-1.0 
1.0 1:0.155464580883015 2:0.0847891771435989 3:0.318701063821385 4:0.232298620994053 5:0.105307465317078 6:0.8 7:0.955454732934629 8:-1.0 
1.0 1:0.0878886581808478 2:0.123468060354921 3:0.327935019643091 4:0.28623548500804 5:0.0898095331446342 6:0.8 7:0.847413405308142 8:-1.0 
-1.0 1:-0.0836303869922546 2:-0.115657140908718 3:0.0829732975147186 4:0.209581452485965 5:-0.124135246139816 6:0.6 7:0.563112910481331 8:-0.692217785136847 
-0.007077074048649492 1:-0.0416709664714868 2:-0.0932240518738651 3:0.00458320045789895 4:0.239890747305151 5:0.00865030294237368 6:0.8 7:0.779923830250274 8:-1.0 
1.0 1:0.0745644517387316 2:0.362284706713184 3:0.0199220535970961 4:0.300378530621016 5:0.094763364239135 6:0.8 7:0.953644770025218 8:-1.0 
1.0 1:0.0544689053399285 2:0.157642016418786 3:0.148780186107571 4:0.348352241067691 5:0.132542590169194 6:0.8 7:0.934393136512745 8:-1.0 
-1.0 1:-0.0222279612359413 2:0.0620769567081516 3:0.138500165732516 4:0.321150214741055 5:0.0297927335117705 6:0.6 7:0.799165175909361 8:-0.955619700523182 
1.0 1:0.0709667438546691 2:0.0102845336519661 3:-0.0104652705161596 4:0.169112825188887 5:-0.0707342198546514 6:0.6 7:0.665205959684485 8:-0.768539325842695 
1.0 1:-0.0074225803670479 2:-0.0133753723665863 3:-0.03415010156118 4:0.0733853008316687 5:-0.0336642797491439 6:0.6 7:0.789952798381659 8:-1.0 
1.0 1:-0.217190384772686 2:-0.0758476345393433 3:0.225875834138748 4:-0.00481602463400177 5:-0.151609104823775 6:0.4 7:0.472016183412001 8:-0.59605911330049 
1.0 1:-0.1894748723794 2:-0.0705177554488073 3:0.0734302774813373 4:0.107013325645061 5:-0.00183102904999444 6:0.4 7:0.964435822825731 8:-1.0 
1.0 1:-0.108051522580533 2:-0.0667300463075358 3:0.0398494844318995 4:0.134695134228429 5:0.026648915117937 6:0.4 7:0.84977399627759 8:-1.0 
1.0 1:0.0972701842508525 2:0.130099347152799 3:0.109792214101902 4:0.106395795789143 5:0.144041235221459 6:0.4 7:0.973207820419988 8:-1.0 
1.0 1:0.268184743646143 2:0.190560746819194 3:0.183523337846718 4:0.160566737169281 5:0.29315832299977 6:0.4 7:0.97726717184063 8:-1.0 
-1.0 1:0.370950619855727 2:0.115924445335898 3:0.186088101195848 4:0.415277320059572 5:0.171393669969208 6:0.4 7:0.785447163158458 8:-1.0 
-1.0 1:0.341588240379956 2:0.115680597019579 3:0.174697644619316 4:0.278933123903214 5:0.189742150101869 6:0.6 7:0.935924058142984 8:-1.0 
-1.0 1:0.330256500783426 2:0.163380770956328 3:0.171780335465283 4:0.24687626724015 5:0.145927134566066 6:0.6 7:0.868835071592716 8:-1.0 
0.8277069140555019 1:-0.0641671437912068 2:0.0404083115194993 3:0.120644691576401 4:0.131425056787623 5:-0.197871146714313 6:0.4 7:0.330281568491965 8:-0.423320277191924 
1.0 1:-0.243922863362644 2:0.0314460720576815 3:0.0699270448536404 4:0.109953384963218 5:-0.130389327228197 6:0.4 7:0.418713141448813 8:-0.443191463562507 
1.0 1:-0.132853236508297 2:0.173125380293022 3:0.0706322918775042 4:0.160900882564844 5:0.0125737719997077 6:0.6 7:0.654151703123298 8:-0.841705131686127 
1.0 1:-0.093260897052596 2:0.180786988022153 3:0.0924685870797886 4:0.16945576897451 5:0.129578247640597 6:0.8 7:0.854758483475187 8:-1.0 
1.0 1:0.0281444183699457 2:0.255460401218071 3:0.19998021580591 4:0.220590695280957 5:0.243654708554116 6:0.8 7:0.985897048453711 8:-1.0 
1.0 1:0.442355287063378 2:0.266492171440538 3:0.325484780669749 4:0.361135939220294 5:0.320136153584211 6:1.0 7:0.919735353007749 8:-1.0 
-1.0 1:0.190909408732835 2:-0.0184441273234227 3:0.179197819033743 4:0.210778700291514 5:-0.0616718480133535 6:0.8 7:0.350942180705429 8:-0.41546643031243 
1.0 1:0.0508086121454485 2:-0.035450160479224 3:0.220841458434504 4:0.150601487400211 5:-0.0935708691639623 6:0.6 7:0.342567241101628 8:-0.403944161311765 
1.0 1:-0.260264885425779 2:-0.212590360803032 3:0.0527554109081974 4:0.0325663059759211 5:-0.290727369716494 6:0.4 7:0.00515380898695517 8:0.0602703301573237 
0.1351898896354392 1:-0.425215641815764 2:-0.243190480509726 3:0.020457286184129 4:0.042568018347898 5:-0.226989445568471 6:0.4 7:0.0328555322918356 8:0.0917051236540052 
-1.0 1:-0.638686552503099 2:-0.125347304648295 3:-0.0916317998418367 4:0.0419918662178951 5:-0.246485332771564 6:0.2 7:-0.385265828136562 8:0.531908578213121 
1.0 1:-0.284303472052847 2:-0.0454461674200131 3:-0.123339823027579 4:0.088829606611587 5:-0.023842717475996 6:0.2 7:0.0774759539160783 8:0.151714783956596 
1.0 1:-0.127559614940305 2:-0.0319497291858546 3:-0.0515677586896293 4:0.190315126417956 5:0.112274219611575 6:0.2 7:0.488695268556301 8:-0.641154814958334 
1.0 1:-0.103057206709388 2:-0.21890652145929 3:-0.18491859179044 4:0.069934873262502 5:-0.127582951050622 6:0.2 7:0.092974522995479 8:0.0540592908351087 
1.0 1:0.0215300754839269 2:-0.247397180708134 3:-0.143928830538485 4:0.098335969414137 5:0.0238289591642389 6:0.2 7:0.494871512076764 8:-1.0 
0.5105798674623991 1:0.0611834693874862 2:-0.363453875716383 3:-0.0238927842493222 4:0.0267178327777613 5:-0.0353650119998888 6:0.0 7:0.801630798021653 8:-0.982172179216509 
-1.0 1:-0.178599294909627 2:-0.283215223387818 3:-0.0876879281714392 4:-0.099377202583584 5:-0.15394824536995 6:-0.2 7:0.545782649378425 8:-0.533192587379778 
-1.0 1:-0.406296236761182 2:-0.329886245597716 3:-0.201054172317051 4:-0.140637036235872 5:-0.238513764206446 6:-0.4 7:0.272824488704717 8:-0.0541871921182252 
1.0 1:-0.134933439206573 2:-0.137053754701277 3:-0.207175883059317 4:-0.128937487869603 5:-0.0469394302236756 6:-0.4 7:0.701352757544221 8:-0.926342950973485 
1.0 1:-0.141706801543369 2:-0.0603661094482922 3:-0.234320627836899 4:-0.0998611517243381 5:0.0713064285011382 6:-0.2 7:0.909417685118617 8:-1.0 
1.0 1:0.0181305807510828 2:0.0712310066299953 3:-0.246344088874312 4:0.0619047267281339 5:0.182422332565135 6:0.0 7:0.858024691358025 8:-1.0 
1.0 1:0.218568710535533 2:0.0431901370843986 3:-0.0730348157216644 4:0.0964923059607903 5:0.221459255398789 6:0.2 7:0.972424442973748 8:-1.0 
0.043997188040144505 1:0.383030043467825 2:-0.00464034924225054 3:-0.0260962139944775 4:0.0741345372483291 5:0.19754922444294 6:0.2 7:0.863535502958578 8:-1.0 
1.0 1:0.426875066385461 2:0.208143633218242 3:0.163610676219923 4:0.0874025753070224 5:0.30326033320211 6:0.4 7:1.0 8:-1.0 
-1.0 1:0.43457740676382 2:0.208544089518673 3:0.234068577143035 4:0.0684866222493881 5:0.322336157831615 6:0.4 7:0.931970844647707 8:-1.0 
-1.0 1:0.385486927570154 2:0.285115832010372 3:0.320665393020629 4:0.0383927731185005 5:0.30173491205991 6:0.4 7:0.923121055651176 8:-1.0 
-1.0 1:0.200627072207415 2:0.297330920897789 3:0.194520379076031 4:0.100616859893348 5:0.0863680907129047 6:0.4 7:0.714078022776834 8:-0.878712097530478 
1.0 1:0.147328282881215 2:0.371205487657744 3:0.124685333934575 4:0.115388620362907 5:0.0466198361787116 6:0.4 7:0.73686004499284 8:-0.937358558884764 
0.9411026961349411 1:0.0473197128494787 2:0.332296052520653 3:0.248248949160226 4:0.222570650542978 5:0.0870162068579716 6:0.6 7:0.869681460545413 8:-1.0 
-1.0 1:-0.0879918099067599 2:0.245157157743906 3:0.17242223451941 4:0.218186843440539 5:0.0141639225051295 6:0.8 7:0.821012365447915 8:-1.0 
1.0 1:0.0288039809698071 2:0.292363204938041 3:0.302273157068989 4:0.338371421560945 5:0.24471318622965 6:1.0 7:0.972956984703792 8:-1.0 
1.0 1:0.277730908129681 2:0.336922494692741 3:0.454100756767422 4:0.34870489600432 5:0.357690130478771 6:1.0 7:0.91155822537454 8:-1.0 
1.0 1:0.394691988762521 2:0.378976726640327 3:0.584304534238516 4:0.343602601570911 5:0.375583250206494 6:1.0 7:0.888284367065651 8:-1.0 
-1.0 1:0.44523209184856 2:0.344431320672905 3:0.579637474808548 4:0.466460130750103 5:0.37563099466991 6:1.0 7:0.814757929883137 8:-1.0 
-0.2791942951462708 1:0.660314857306647 2:0.392764571699909 3:0.625830677739548 4:0.499257911473868 5:0.478028848977665 6:1.0 7:0.995142683667273 8:-1.0 
-1.0 1:0.347456937800619 2:0.267260104070953 3:0.489498142689053 4:0.46669233198658 5:0.173592217414248 6:0.8 7:0.636665062302797 8:-0.84679117147708 
-1.0 1:0.221596774775585 2:0.351041291357054 3:0.455831319328225 4:0.531945409787571 5:0.158233763077388 6:0.8 7:0.734690415606445 8:-0.988607782216304 
1.0 1:0.283707485995734 2:0.471646530432957 3:0.527259795963066 4:0.665238253561379 5:0.331892042203638 6:0.8 7:0.910434492721414 8:-1.0 
1.0 1:0.3684688988185 2:0.563513723343912 3:0.546228374143451 4:0.700965107992848 5:0.46729370988892 6:0.8 7:0.966422645192776 8:-1.0 
1.0 1:0.300974359811834 2:0.662549539431011 3:0.548973368841595 4:0.706773672320462 5:0.461824718431552 6:1.0 7:0.923869461503324 8:-1.0 
-0.5970076825244501 1:0.555920924988676 2:0.624115481492423 3:0.586103452994601 4:0.714141619596998 5:0.502086775076508 6:1.0 7:0.919831646457561 8:-1.0 
-1.0 1:0.47873898636249 2:0.485780334838204 3:0.615038735505998 4:0.651099915161293 5:0.278652255758894 6:0.8 7:0.840965681498321 8:-0.98733324349818 
-1.0 1:0.387203155532261 2:0.466601961348872 3:0.666525155640718 4:0.667168391214405 5:0.302659192602614 6:0.8 7:0.709936486273685 8:-1.0 
-1.0 1:0.115062260902878 2:0.339622393085048 3:0.585976844963353 4:0.556371020804606 5:0.0817325304709013 6:0.6 7:0.622067083092751 8:-0.885263879369433 
-1.0 1:-0.00846815427133152 2:0.211436448518141 3:0.596164543629685 4:0.501247080236351 5:0.0356087946695589 6:0.6 7:0.65755078473571 8:-0.926287022675238 
0.2944117218052164 1:-0.121080285969399 2:0.301735727452456 3:0.49754636750744 4:0.477954543506311 5:0.0609069730929039 6:0.6 7:0.725565952309085 8:-1.0 
1.0 1:0.137227169358363 2:0.428074855167059 3:0.533332123051142 4:0.621423328176113 5:0.355942842275186 6:0.6 7:0.929797591596208 8:-1.0 
1.0 1:0.333429096586534 2:0.50036808781014 3:0.630978249839261 4:0.75488731557433 5:0.644409857637017 6:0.6 7:0.969398782776861 8:-1.0 
1.0 1:0.634183292794416 2:0.516233142093167 3:0.693998278257688 4:0.829991582403762 5:0.7408983370798 6:0.8 7:0.990260869565217 8:-1.0 
1.0 1:0.871861380864878 2:0.587142514571103 3:0.71527844957782 4:0.94939143108798 5:0.821409702940828 6:0.8 7:0.962399897220677 8:-1.0 
-0.15325882327413487 1:1.0 2:0.59133484187585 3:0.868934561946131 4:0.92531923372924 5:0.77917498849885 6:0.8 7:0.944473351668771 8:-1.0 
1.0 1:0.943460462431134 2:0.737504960233395 3:0.950311324600868 4:0.929591375373325 5:0.788469496837918 6:0.8 7:0.965357131096254 8:-1.0 
1.0 1:0.917212486467577 2:0.858787100749317 3:1.0 4:1.0 5:0.937840519514215 6:0.8 7:0.958913261329473 8:-1.0 
-1.0 1:0.663338188334631 2:0.895754344945617 3:0.866076852283381 4:0.933176345750691 5:0.577247608500286 6:0.6 7:0.753260899924587 8:-1.0 
-0.7257369486692079 1:0.577295189031704 2:1.0 3:0.87785128195104 4:0.910003228525605 5:0.604605351067648 6:0.8 7:0.923969634391089 8:-1.0 
-1.0 1:0.343545419845123 2:0.921971152620271 3:0.743923917073517 4:0.92342531132588 5:0.278466975917505 6:0.6 7:0.838276719138359 8:-0.925579061794464 
-1.0 1:0.188850288863556 2:0.774086065356897 3:0.776822294193164 4:0.913566779011178 5:0.217905056857926 6:0.8 7:0.880549724741575 8:-1.0 
-1.0 1:-0.0776331346937924 2:0.568073231994557 3:0.71801626145402 4:0.822037908393679 5:0.129403776541773 6:0.8 7:0.892818357807258 8:-1.0 
-1.0 1:-0.195379678594987 2:0.320240587546671 3:0.676981026036693 4:0.660268062039272 5:-0.158349413029379 6:0.6 7:0.604602752399676 8:-0.63607393244105 
1.0 1:-0.327537856132763 2:0.173386138391627 3:0.681261566921495 4:0.605327674037751 5:-0.108001838778816 6:0.6 7:0.579483448526737 8:-0.604284103720411 
-1.0 1:-0.506135583750009 2:-0.0973620640469108 3:0.508700333903976 4:0.417608888682433 5:-0.497245491660415 6:0.4 7:-0.431918873683177 8:1.0 
1.0 1:-0.411211183277 2:-0.131618991092382 3:0.447249401187791 4:0.487860749362977 5:-0.140220568381459 6:0.4 7:-0.15456764743673 8:0.0943457715496165 
1.0 1:-0.354847927872958 2:-0.264413248458941 3:0.313953118518718 4:0.469847182725455 5:-0.0142125298930939 6:0.4 7:0.225234485416931 8:-0.387322796154481 
-0.7458704397267704 1:-0.332229523712869 2:-0.325078228637546 3:0.12575350096089 4:0.449139677497689 5:-0.214576371464415 6:0.2 7:-0.243736348451757 8:0.207430340557269 
-1.0 1:-0.340561186551321 2:-0.415124531410786 3:0.00169676344255931 4:0.448484643478491 5:-0.159778117848602 6:0.2 7:-0.112840466926068 8:0.0891314974743256 
1.0 1:-0.110159407763466 2:-0.383968801194883 3:-0.0933167058934714 4:0.422647129701936 5:-0.148729837165831 6:0.2 7:-0.0948611297464194 8:0.0672967247840983 
1.0 1:-0.212167762547549 2:-0.38696313253487 3:-0.176760105197526 4:0.328032748936986 5:-0.0754161460682935 6:0.4 7:0.268586940129693 8:-0.686444545869472 
-1.0 1:-0.160446950856171 2:-0.317391764481696 3:-0.258323915238111 4:0.24810335351906 5:0.116462143345224 6:0.4 7:0.976692727540937 8:-1.0 
-1.0 1:-0.141416966726946 2:-0.290491878797808 3:-0.298315565387975 4:0.110164617344531 5:-0.0969825696266063 6:0.4 7:0.319288507632143 8:-0.524640491194055 
-1.0 1:-0.122693252847949 2:-0.283923927337681 3:-0.362922934830278 4:0.0216423529026628 5:-0.0497856721163349 6:0.4 7:0.452496870218384 8:-0.605536332179916 
1.0 1:-0.00783965949526111 2:-0.0587242863345285 3:-0.277087839953406 4:-0.00382254370102075 5:0.116674659340305 6:0.4 7:0.510703363914371 8:-1.0 
-1.0 1:-0.0926790305292562 2:-0.180776947357976 3:-0.323940590639855 4:-0.10492767722511 5:-0.0393299549739766 6:0.4 7:0.297167929796574 8:-0.697779450508101 
-1.0 1:-0.227922504869111 2:-0.234884487345378 3:-0.33759726854576 4:-0.224477067333589 5:-0.0858220938609303 6:0.2 7:0.26126844834463 8:-0.621086649161779 
1.0 1:-0.249699479666582 2:-0.236760276814271 3:-0.327066050997057 4:-0.264316442072234 5:-0.26885924131001 6:0.2 7:-0.264082128866671 8:0.162571662571654 
1.0 1:-0.19267632234018 2:-0.187495818924838 3:-0.291483557366476 4:-0.291004785820925 5:-0.0679445962506606 6:0.2 7:0.231563221512972 8:-0.511725499876577 
1.0 1:-0.302444311393091 2:-0.185275184745214 3:-0.166100498357845 4:-0.269644138987212 5:-0.0816530826405496 6:0.2 7:0.0895572828658286 8:-0.435931307793921 
1.0 1:-0.199470047617899 2:-0.172477199190565 3:-0.210306352253288 4:-0.263565485540729 5:0.00382547151894919 6:0.4 7:0.496898690558238 8:-1.0 
-1.0 1:-0.278654768475545 2:-0.311301712018366 3:-0.296984460579781 4:-0.306424895436488 5:-0.191703165778578 6:0.2 7:-0.282842639593915 8:0.0556073314694134 
1.0 1:-0.194720157861884 2:-0.271157336706688 3:-0.253787572674733 4:-0.264047143406281 5:-0.19764944628563 6:0.0 7:-0.385989847715741 8:0.213420316868603 
1.0 1:-0.198613019224421 2:-0.2367172780385 3:-0.215369009945711 4:-0.23807058008452 5:-0.0262397121435085 6:0.0 7:0.443908851884308 8:-0.894377135756429 
-1.0 1:-0.237786832213667 2:-0.33301875868975 3:-0.234555141929417 4:-0.157330691957409 5:-0.120400656734308 6:-0.2 7:0.26343319067999 8:-0.497980739360055 
-1.0 1:-0.257845442598601 2:-0.279500864396751 3:-0.234845518579935 4:-0.199806553790037 5:-0.0560995546928703 6:0.0 7:0.661911554921534 8:-1.0 
-1.0 1:-0.157893223367509 2:-0.266218736495964 3:-0.295636395518842 4:-0.225627582302265 5:-0.0620475746820586 6:0.0 7:0.676012461059182 8:-1.0 
1.0 1:-0.113957566891454 2:-0.183165793268659 3:-0.23921807888213 4:-0.173906698180905 5:-0.036913075810033 6:0.0 7:0.525950830006297 8:-1.0 
1.0 1:-0.0239925975467538 2:-0.127406812274275 3:-0.162771333694803 4:-0.106564786794313 5:0.236404025066622 6:0.2 7:0.946091644204852 8:-1.0 
-1.0 1:0.0215147842196388 2:-0.123760080999731 3:-0.21910238340502 4:-0.102792153927821 5:0.131146833255743 6:0.4 7:0.570647603027752 8:-1.0 
-1.0 1:-0.0763187563869885 2:-0.20008338539857 3:-0.226174220261894 4:-0.143541338933604 5:-0.0539604083791037 6:0.4 7:0.342514718250631 8:-0.676216054908985 
1.0 1:-0.0867373858565512 2:-0.141437735257808 3:-0.220679029313695 4:-0.195383185552364 5:-0.0780986033019498 6:0.4 7:0.314970328070761 8:-0.633975166456717 
1.0 1:-0.0667963622374448 2:-0.0996939756353382 3:-0.141089626235864 4:-0.143021432521926 5:-0.0126595092318342 6:0.4 7:0.480493074088193 8:-0.999280187151341 
-1.0 1:-0.17410114122242 2:-0.111295508141539 3:-0.152735948030133 4:-0.1280916632809 5:0.0706559877715587 6:0.4 7:0.851619644723097 8:-1.0 
-1.0 1:-0.273831434315457 2:-0.147538712546294 3:-0.203637032161474 4:-0.213224834821535 5:-0.153003895070154 6:0.4 7:0.271569646569649 8:-0.403242147922999 
1.0 1:-0.219114227348815 2:-0.174733450183325 3:-0.23669105608663 4:-0.195977138235056 5:-0.148346211089201 6:0.6 7:0.276507276507281 8:-0.341991341991343 
-1.0 1:-0.360505349710813 2:-0.273937221657831 3:-0.26482214881316 4:-0.250414781882872 5:-0.38639099178932 6:0.4 7:-0.446465696465701 8:1.0 
1.0 1:-0.320368526903363 2:-0.234896130826102 3:-0.209206481290803 4:-0.172711047305013 5:-0.14896801731421 6:0.6 7:0.0262474012474012 8:0.196909492273732 
-1.0 1:-0.476608896885425 2:-0.405188698416282 3:-0.303226812692113 4:-0.247168197908303 5:-0.294770810713032 6:0.4 7:-0.418918918918924 8:0.95320088300221 
1.0 1:-0.26919937888326 2:-0.334767104596645 3:-0.220565342964884 4:-0.199389812808305 5:-0.0328736915830228 6:0.4 7:0.0361213677957939 8:-0.132008830022065 
-1.0 1:-0.333888368952028 2:-0.341363586478885 3:-0.277531627942953 4:-0.251634063524852 5:-0.180870645318228 6:0.2 7:-0.340518587941264 8:0.437086092715234 
1.0 1:-0.22844223378968 2:-0.364547583834469 3:-0.302241063175088 4:-0.229713502893533 5:-0.225123735650885 6:0.0 7:-0.545766947828805 8:0.727152317880803 
1.0 1:-0.261640648714725 2:-0.359900407967628 3:-0.287925041744926 4:-0.200536655855472 5:-0.098623073674295 6:0.0 7:-0.10825420014609 8:-0.274622573687988 
-1.0 1:-0.23600595123879 2:-0.44439114298984 3:-0.413805044820893 4:-0.262493204807361 5:-0.217041181350569 6:0.0 7:-0.376115883442816 8:0.58806613946801 
-1.0 1:-0.481665281217892 2:-0.468669238746334 3:-0.485390052952774 4:-0.300618999382187 5:-0.407909069281476 6:-0.2 7:-0.903819814335722 8:1.0 
1.0 1:-0.463282156348491 2:-0.497836776825014 3:-0.48101947238493 4:-0.336164476970855 5:-0.397059202953868 6:-0.4 7:-0.812078727419795 8:1.0 
1.0 1:-0.556340258719492 2:-0.491142610797846 3:-0.548452813991948 4:-0.393036753279313 5:-0.528868120076712 6:-0.6 7:-0.814287118011205 8:1.0 
1.0 1:-0.595014865984574 2:-0.536958306240908 3:-0.565034045541091 4:-0.398158668789313 5:-0.370597363520034 6:-0.4 7:-0.72704243191894 8:0.911876424411243 
1.0 1:-0.547811368963261 2:-0.490390514547118 3:-0.607732323295593 4:-0.473499267211679 5:-0.314071135600824 6:-0.6 7:-0.773696432341149 8:0.964260588152526 
1.0 1:-0.389650589292816 2:-0.544915032549379 3:-0.545302171184409 4:-0.464378669893343 5:-0.197438586162471 6:-0.4 7:-0.588837209302329 8:0.768397354720698 
-1.0 1:-0.269276530249217 2:-0.456874364707123 3:-0.506869472237253 4:-0.413069535391392 5:-0.0511525560347533 6:-0.4 7:-0.218881035102432 8:0.348529618685802 
1.0 1:-0.0937958368685825 2:-0.406444746274066 3:-0.410889983340037 4:-0.395819769793222 5:-0.00270223995240326 6:-0.2 7:0.0343804105862009 8:-0.0959878110716186 
-1.0 1:-0.15608994220902 2:-0.4707793700607 3:-0.480809356111012 4:-0.433271554375085 5:-0.124424584425573 6:-0.4 7:-0.115764203787674 8:-0.391253302025251 
-1.0 1:-0.191777280908155 2:-0.462548930880693 3:-0.460808097776133 4:-0.480402174148703 5:-0.210221901821985 6:-0.4 7:-0.0624632856863137 8:0.104726598702497 
-1.0 1:-0.386271552892756 2:-0.484064921091597 3:-0.605261712015478 4:-0.508734198119953 5:-0.456396920939126 6:-0.4 7:-0.832936372915948 8:1.0 
-1.0 1:-0.527208954777611 2:-0.498060535668758 3:-0.607025784707947 4:-0.535358264265743 5:-0.464683066587297 6:-0.6 7:-0.690364945068828 8:1.0 
-1.0 1:-0.672110756384726 2:-0.482110239714721 3:-0.642253378344638 4:-0.521399103194867 5:-0.527373724138449 6:-0.6 7:-0.952885482416588 8:1.0 
1.0 1:-0.706366919163956 2:-0.54318899372391 3:-0.710798756426683 4:-0.587119834387682 5:-0.529908532636986 6:-0.6 7:-0.92073228272152 8:1.0 
1.0 1:-0.41054399050833 2:-0.373547105561274 3:-0.551166815020626 4:-0.453986710553883 5:0.0233649213499785 6:-0.4 7:0.0100971973199935 8:-0.0175366205900491 
-1.0 1:-0.277075346589266 2:-0.412234816592189 3:-0.499641322847657 4:-0.51181116464181 5:-0.0742445800045697 6:-0.4 7:-0.0816268755308071 8:0.0827315865483802 
-1.0 1:-0.217610328567529 2:-0.46548060764156 3:-0.480428105544721 4:-0.489944015302136 5:-0.110906489116515 6:-0.6 7:-0.111069170519954 8:0.0279823269513968 
-0.3250225741457802 1:-0.13702688331271 2:-0.509038704535387 3:-0.425725974045325 4:-0.4858996527837 5:-0.159281954336365 6:-0.6 7:-0.192979145041047 8:0.0245383253225406 
1.0 1:0.0558315241070504 2:-0.411569062562853 3:-0.377386463047474 4:-0.465215812926222 5:0.0299881572700329 6:-0.6 7:0.581022797288971 8:-1.0 
-1.0 1:-0.132775268036994 2:-0.335976088766962 3:-0.333815682515606 4:-0.413302535980409 5:0.0922002280355676 6:-0.6 7:0.945939212755355 8:-1.0 
-1.0 1:-0.0693765757131226 2:-0.208199761996687 3:-0.332750260260049 4:-0.347976803054212 5:0.0770249467321684 6:-0.6 7:0.8143039049236 8:-1.0 
-1.0 1:-0.059030494804704 2:-0.162563417964593 3:-0.371624765037252 4:-0.328810710725927 5:0.00698651711596776 6:-0.4 7:0.790724335591455 8:-1.0 
1.0 1:0.0483843178447565 2:-0.0397889171337088 3:-0.352563861643651 4:-0.242760183621647 5:0.0975284134778867 6:-0.2 7:0.779670230114146 8:-1.0 
-1.0 1:-0.06677410098203 2:0.0115350535646634 3:-0.330841015319399 4:-0.251208153938308 5:0.0123904500617669 6:-0.2 7:0.67544083823153 8:-0.981851789615192 
-1.0 1:-0.0626537388487096 2:-0.109320865841105 3:-0.26586820139732 4:-0.215408368923062 5:0.089336127637581 6:0.0 7:0.959377280467038 8:-1.0 
1.0 1:0.095150360454612 2:0.0355624835174124 3:-0.0752760681028437 4:-0.150195360253588 5:0.343643411001435 6:0.2 7:0.943705637594839 8:-1.0 
-1.0 1:0.101638770844535 2:0.0466808944289752 3:-0.0333728186964806 4:-0.178405193475007 5:0.195838314025936 6:0.4 7:0.714641641059708 8:-1.0 
-1.0 1:0.0323104892590547 2:0.0721644068388967 3:0.0321590300803198 4:-0.191471810210422 5:0.109268678948218 6:0.4 7:0.758945386064032 8:-1.0 
-1.0 1:0.127719898955191 2:0.0586230606118621 3:0.127580414873553 4:-0.135389520420298 5:0.182935364875808 6:0.6 7:0.949910554561718 8:-1.0 
-1.0 1:0.0413506792712974 2:0.00477241469531875 3:-0.0211785488537953 4:-0.119311443522025 5:0.0588249231194302 6:0.6 7:0.830341027833194 8:-0.961966504592117 
-1.0 1:-0.0141891280304345 2:0.0721852773805289 3:0.0696336125535768 4:0.00767797808960968 5:0.234625563914108 6:0.8 7:0.800951563840578 8:-1.0 
-1.0 1:-0.0175647404046517 2:0.074212147909287 3:0.0770471732768576 4:0.0391898231267656 5:0.117563625160381 6:0.8 7:0.803855825649625 8:-1.0 
-1.0 1:0.019613102565359 2:0.0531675493696582 3:0.118888902368282 4:0.10673840663256 5:0.122603252592448 6:0.8 7:0.932131147540986 8:-1.0 
-1.0 1:-0.137035554427759 2:0.0118756246799896 3:0.0209677620670388 4:0.113501972354451 5:-0.0804048352505511 6:0.6 7:0.61339335959482 8:-0.568429617575259 
1.0 1:-0.203485492474079 2:-0.0882825470105493 3:-0.0600093255212231 4:-0.0307466702078051 5:-0.233823346164456 6:0.4 7:0.105557627750842 8:-0.041848008034825 
1.0 1:-0.287655129670049 2:-0.179626378821279 3:-0.0512251772847054 4:0.00309176068748296 5:-0.109157995981861 6:0.4 7:0.37908740519707 8:-0.377824858757065 
1.0 1:-0.246349712192263 2:-0.154634352283468 3:-0.0266952745543038 4:0.0267181072056717 5:-0.0381009529836251 6:0.6 7:0.54924630469779 8:-0.5994005994006 
-1.0 1:-0.404666868645713 2:-0.235062412622701 3:-0.131381422911622 4:-0.0101167499853569 5:-0.264164825919665 6:0.4 7:-0.284761416110819 8:0.507492507492501 
1.0 1:-0.192416524455024 2:-0.196625235180471 3:-0.0480892956086997 4:0.00665557685997409 5:0.0406504305068065 6:0.4 7:0.703977396218217 8:-1.0 
1.0 1:0.0260744597763172 2:-0.0981778968338933 3:-0.0118395954503254 4:0.036806575691567 5:0.232410070523797 6:0.4 7:0.720661985957866 8:-1.0 
-1.0 1:0.0130880367873505 2:-0.162079097258454 3:-0.0952715791884023 4:0.0382070325983597 5:0.180829481163511 6:0.4 7:0.544772386193098 8:-1.0 
-1.0 1:0.0954648571519352 2:-0.0816751804089803 3:-0.0300194658738808 4:0.0927460721312046 5:0.303908745486668 6:0.4 7:0.96655328798186 8:-1.0 
1.0 1:0.409421243868957 2:0.0132792907476631 3:0.0696232697529595 4:0.141785106591139 5:0.512950559253199 6:0.6 7:0.840333480704859 8:-1.0 
-1.0 1:0.365653779955501 2:0.129292899015444 3:0.0793479109536162 4:0.190879035046472 5:0.495017632969294 6:0.6 7:0.886217211228717 8:-1.0 
-1.0 1:0.221606819315194 2:0.182358435475229 3:0.0858997737727716 4:0.158561249040685 5:0.28771456916189 6:0.6 7:0.85549230682523 8:-1.0 
-1.0 1:0.312756080008923 2:0.233743845568054 3:0.0806001781052441 4:0.130260410038237 5:0.386099436447618 6:0.6 7:0.846264367816094 8:-1.0 
-1.0 1:0.394908807607017 2:0.343879363602154 3:0.194092084130563 4:0.218021489269831 5:0.602354228681767 6:0.8 7:0.905504737014046 8:-1.0 
-1.0 1:0.355460096438409 2:0.530380382787115 3:0.254247148050157 4:0.281866627883504 5:0.65767485766088 6:1.0 7:0.962127086479208 8:-1.0 
1.0 1:0.455442499802052 2:0.568515548567134 3:0.409674609002107 4:0.333145056067469 5:0.789689387371669 6:1.0 7:0.805581752768173 8:-1.0 
-1.0 1:0.271814934209748 2:0.347082475857197 3:0.35259343939107 4:0.258702717918501 5:0.139096781494701 6:0.8 7:0.524617396529176 8:-0.643419267299864 
-1.0 1:0.100932407274669 2:0.293052277345547 3:0.299982628437902 4:0.180244389348296 5:-0.0272229827168234 6:0.8 7:0.387326796856008 8:-0.467572988633829 
1.0 1:0.169099069774157 2:0.393914731235719 3:0.431718851607002 4:0.300411836652943 5:0.470238915675047 6:0.8 7:0.874552309142319 8:-1.0 
-1.0 1:0.0544607769182877 2:0.289923294813344 3:0.522620069730771 4:0.297380793496609 5:0.355826040149485 6:0.8 7:0.774372380222651 8:-1.0 
-1.0 1:0.033673845683359 2:0.341864742458106 3:0.542411014080928 4:0.410827861302876 5:0.55737682982897 6:0.8 7:0.93350298277085 8:-1.0 
-1.0 1:0.0157399284836213 2:0.208537941941651 3:0.34668010678742 4:0.357669379935596 5:-0.0591697425116781 6:0.6 7:0.46178719909665 8:-0.405058209554396 
1.0 1:0.0507061168530385 2:0.119073609721866 3:0.321370588677672 4:0.33186427057418 5:-0.0925915525699015 6:0.4 7:0.304661378089558 8:-0.22007788836002 
1.0 1:-0.036745084805742 2:0.105772363192043 3:0.355652714783517 4:0.396087353887427 5:0.265319305419946 6:0.4 7:0.76095210280374 8:-0.974037213327564 
-1.0 1:-0.309285768471537 2:-0.14977174313852 3:0.114146710523575 4:0.341468156262258 5:-0.326624372613061 6:0.2 7:-0.0116822429906503 8:-0.0582431847685023 
-1.0 1:-0.464592409459146 2:-0.265676049186418 3:0.0676426206042831 4:0.284680145906864 5:-0.215794340072954 6:0.2 7:0.0730140186915889 8:-0.158632626568584 
-1.0 1:-0.496201146530745 2:-0.297887096417152 3:-0.0573505864028062 4:0.122090287912093 5:-0.63161156113024 6:0.0 7:-0.852522639068566 8:1.0 
1.0 1:-0.57092694239443 2:-0.325192781456936 3:-0.170705024102245 4:0.0693744623509016 5:-0.624109464401337 6:-0.2 7:-0.722695081541158 8:1.0 
1.0 1:-0.654201083764281 2:-0.434813878332539 3:-0.227601077743806 4:0.0575142611363018 5:-0.268360224288411 6:-0.2 7:-0.427327659021503 8:0.61376380628717 
1.0 1:-0.313967333270889 2:-0.386357092052434 3:-0.246509030629357 4:0.0258447429519078 5:0.0130583636069357 6:0.0 7:-0.0651679552985495 8:0.129087779690189 
-1.0 1:-0.29946842102767 2:-0.476857384367274 3:-0.333178850673514 4:-0.00355887261663568 5:0.0395023802858818 6:0.2 7:0.0537327009291173 8:-0.0283993115318433 
1.0 1:0.0728159734572289 2:-0.261801896999979 3:-0.162578083637626 4:0.0587896394907219 5:0.272883833915712 6:0.2 7:0.498278214540969 8:-0.617211703958695 
-1.0 1:0.156774172301642 2:-0.25855390800209 3:-0.141279404957859 4:0.00413607443821173 5:0.13885052183489 6:0.2 7:0.588130482456138 8:-1.0 
-1.0 1:-0.0318800927851151 2:-0.431778868994441 3:-0.332023571794712 4:-0.119447009489065 5:-0.125017998523662 6:0.0 7:0.31811951754386 8:-0.58320110017984 
-1.0 1:-0.141083040574771 2:-0.278387840440348 3:-0.348745200745816 4:-0.179443467610069 5:-0.104377246765536 6:0.2 7:0.361019736842107 8:-0.649423463450762 
-1.0 1:-0.311019690422773 2:-0.378160983153722 3:-0.511295499786564 4:-0.316227186792187 5:-0.377568772683477 6:0.2 7:-0.0529057017543877 8:-0.0104728657569004 
1.0 1:-0.426962735527156 2:-0.215936832974295 3:-0.397747382073964 4:-0.233829672877018 5:-0.240889569045707 6:0.2 7:0.0209134783521003 8:0.11253481894151 
1.0 1:-0.269742175653764 2:-0.0577006925037493 3:-0.311575671205083 4:-0.151587975357946 5:0.114280865268189 6:0.4 7:0.359171597633132 8:-0.895659610861661 
-1.0 1:-0.24731322537383 2:-0.164507630796748 3:-0.441471210124092 4:-0.289347523019494 5:-0.0961983053550267 6:0.2 7:0.0741617357001969 8:-0.277742142398979 
-1.0 1:-0.228489228803288 2:-0.22273537431925 3:-0.305915238957064 4:-0.294589862050965 5:-0.0472826622649954 6:0.4 7:0.222682445759363 8:-0.599743425272605 
1.0 1:-0.0419562172019173 2:-0.212823745708428 3:-0.290095497015465 4:-0.346224981072624 5:0.0309577017625435 6:0.6 7:0.475739644970416 8:-1.0 
1.0 1:0.0698810704395594 2:-0.21780314951843 3:-0.0952899133609293 4:-0.211965247205702 5:0.255564662197732 6:0.6 7:0.930267993188127 8:-1.0 
-1.0 1:-0.134283275882528 2:-0.245213322649782 3:-0.0736271018836022 4:-0.22730550251801 5:0.0413823782425773 6:0.4 7:0.609532388829742 8:-0.773525872442843 
-1.0 1:-0.075201534259237 2:-0.192468857135633 3:-0.130107943264217 4:-0.304771162190359 5:-0.0272786897513795 6:0.2 7:0.596429448857583 8:-0.754271961492177 
-1.0 1:-0.249150533537076 2:-0.292593983709164 3:-0.271313309724262 4:-0.26995447327967 5:-0.351050963545628 6:0.0 7:0.0544590942592751 8:0.135439884620421 
1.0 1:-0.330138917718778 2:-0.2253723147686 3:-0.30648915527592 4:-0.291008971133176 5:-0.335477889304064 6:-0.2 7:-0.463325323263527 8:0.860578729800825 
1.0 1:-0.376154496122757 2:-0.184154553398953 3:-0.335118235742956 4:-0.161182256472694 5:-0.0846346901959933 6:0.0 7:0.0337567227371531 8:0.0443442314919229 
-1.0 1:-0.336478198978428 2:-0.288687408172048 3:-0.336199734944923 4:-0.127805155337351 5:-0.103627683348584 6:0.0 7:0.0358164549719659 8:0.118965865481719 
-1.0 1:-0.38209366141164 2:-0.280691877065406 3:-0.317780031129626 4:-0.190263321944882 5:-0.217019913315698 6:0.0 7:-0.278762641284952 8:0.587962027873162 
1.0 1:-0.372544840802943 2:-0.437293329865203 3:-0.339322944980981 4:-0.320943268896387 5:-0.374119990553442 6:-0.2 7:-0.352633153800122 8:0.874683187834418 
1.0 1:-0.488217208165018 2:-0.540556045413682 3:-0.367977495630756 4:-0.389979450459402 5:-0.346810812417809 6:-0.2 7:-0.411571025399808 8:1.0 
0.7034491439357756 1:-0.429903972709993 2:-0.478093096665392 3:-0.420989920227332 4:-0.367020476821367 5:-0.160118309917795 6:-0.2 7:-0.19473189087488 8:0.487967419474271 
-1.0 1:-0.588290415297593 2:-0.608188682551129 3:-0.498477967667361 4:-0.417787200943579 5:-0.573315030176474 6:-0.4 7:-0.91563363952555 8:1.0 
1.0 1:-0.339550703798245 2:-0.472281674658328 3:-0.475579829054033 4:-0.392609551719959 5:-0.279266261263867 6:-0.4 7:-0.570467453036263 8:0.605224636865223 
1.0 1:-0.43671324438351 2:-0.505372093755025 3:-0.544360490099288 4:-0.372169336865886 5:-0.389901351564148 6:-0.4 7:-0.886588029707292 8:1.0 
1.0 1:-0.370209323425626 2:-0.53679480914086 3:-0.593502759126504 4:-0.366952908979349 5:-0.224230059427897 6:-0.2 7:-0.582343248634118 8:0.750000000000004 
-1.0 1:-0.461167861871001 2:-0.557364291696253 3:-0.589876801869615 4:-0.44404383349232 5:-0.261434114433184 6:-0.2 7:-0.69994593620472 8:0.906872712484751 
1.0 1:-0.130209977533312 2:-0.45017097865511 3:-0.526416775356429 4:-0.371244333121758 5:0.0167287337840452 6:0.0 7:0.27249283667621 8:-0.222041480276528 
-1.0 1:-0.466025869392508 2:-0.503184029866462 3:-0.58771459578818 4:-0.487363882122355 5:-0.548657038647218 6:-0.2 7:-0.874088800530147 8:1.0 
1.0 1:-0.51778981242541 2:-0.597658806751544 3:-0.640966937953629 4:-0.559905232803366 5:-0.668589647551675 6:-0.4 7:-0.915474098250897 8:1.0 
1.0 1:-0.627145674810696 2:-0.625558335943936 3:-0.722187260643056 4:-0.639785773214336 5:-0.627496250281086 6:-0.4 7:-0.670632175957943 8:1.0 
1.0 1:-0.744591438541229 2:-0.75690417350789 3:-0.798553637423759 4:-0.68307335472757 5:-0.759374954565901 6:-0.4 7:-0.73023649670356 8:1.0 
1.0 1:-0.819867358330252 2:-0.601078022539994 3:-0.753417847270187 4:-0.665893185732389 5:-0.474333940334543 6:-0.4 7:-0.617976168874373 8:0.866118444781075 
1.0 1:-0.681174340811365 2:-0.71971578443077 3:-0.723353150037938 4:-0.656626909800555 5:-0.582709155537649 6:-0.4 7:-0.924606311181373 8:1.0 
1.0 1:-0.46799972560349 2:-0.617403226582811 3:-0.689516154281029 4:-0.61345216228998 5:-0.272356596219688 6:-0.4 7:-0.650091862739288 8:0.753635364829058 
1.0 1:-0.317916743821919 2:-0.592860712291912 3:-0.635890677162438 4:-0.617465518885019 5:-0.0739782175450376 6:-0.2 7:-0.435903514490605 8:0.520067213856394 
-1.0 1:-0.203832500786965 2:-0.59760056061512 3:-0.685994560351237 4:-0.632878002175751 5:-0.173491598736539 6:-0.4 7:-0.540804836128724 8:0.406381192275396 
-1.0 1:-0.448428870683252 2:-0.796800612325372 3:-0.6823151875586 4:-0.691185464695945 5:-0.546931926860641 6:-0.4 7:-0.704526307727656 8:1.0 
1.0 1:-0.369612155645919 2:-0.6597063922942 3:-0.738395732075222 4:-0.638168929563173 5:-0.479754178770989 6:-0.6 7:-0.538563061948366 8:1.0 
-1.0 1:-0.638487650081662 2:-0.693892653121681 3:-0.791872314739657 4:-0.715928797343306 5:-0.713569901365682 6:-0.6 7:-0.887702713715266 8:1.0 
-1.0 1:-0.865658627049621 2:-0.745912081953949 3:-0.888040656968986 4:-0.764190209182655 5:-0.805392951905866 6:-0.8 7:-0.921231326392037 8:1.0 
-1.0 1:-0.959963229872916 2:-0.73710619160181 3:-0.93968834373914 4:-0.837245922462153 5:-0.836217060137937 6:-0.8 7:-0.543770662560569 8:1.0 
1.0 1:-0.594101054203338 2:-0.653492064616754 3:-0.912037046044384 4:-0.693427151876124 5:-0.284067730491623 6:-0.6 7:-0.205651917938496 8:0.542636608674345 
-1.0 1:-0.649570892623608 2:-0.639513463458656 3:-0.830981921882095 4:-0.756668801514068 5:-0.405844275246537 6:-0.6 7:-0.382908382772518 8:0.782406272972313 
1.0 1:-0.397120079868272 2:-0.649615522031938 3:-0.731280140195966 4:-0.70092930080933 5:-0.190778435831183 6:-0.4 7:-0.248494180517184 8:0.577692855754907 
-1.0 1:-0.591208622640436 2:-0.913338007691266 3:-0.870121316405159 4:-0.84656554866024 5:-0.8046859471132 6:-0.6 7:-0.904438515643945 8:1.0 
1.0 1:-0.507163771859746 2:-0.921417244001817 3:-0.821158755897551 4:-0.85423975935689 5:-0.678623776583006 6:-0.6 7:-0.826991455712995 8:1.0 
-1.0 1:-0.956066384011671 2:-0.971798873806044 3:-0.980797309425942 4:-1.0 5:-1.0 6:-0.8 7:-0.972960992907804 8:1.0 
-1.0 1:-0.947229404266838 2:-1.0 3:-0.965550482561804 4:-0.937774421082229 5:-0.857562472306802 6:-1.0 7:-0.875443628761729 8:1.0 
1.0 1:-1.0 2:-0.880075105598533 3:-1.0 4:-0.885463484275265 5:-0.594720396291251 6:-0.8 7:-0.825696216576056 8:0.964508628074898 
1.0 1:-0.57776760259477 2:-0.732775893783502 3:-0.996763089605449 4:-0.828104225178736 5:-0.292847751599991 6:-0.6 7:-0.630311771885058 8:0.748990331660754 
1.0 1:-0.422412780826339 2:-0.581874295942181 3:-0.927567911363824 4:-0.732783940473053 5:-0.0628438531445307 6:-0.4 7:-0.395118145341061 8:0.477471800365492 
1.0 1:-0.0533176175199997 2:-0.643094611745598 3:-0.789789153277742 4:-0.718786316804682 5:0.048478100995313 6:-0.2 7:-0.216005349977712 8:0.274938559455546 
1.0 1:0.262881001389629 2:-0.444956752087184 3:-0.660985539680936 4:-0.59052862035893 5:0.376068019334547 6:0.0 7:0.297781761147207 8:-1.0 
-1.0 1:0.243568812115872 2:-0.492138856658487 3:-0.568143434305339 4:-0.625286763340084 5:0.195931165194155 6:0.0 7:0.724499737690173 8:-0.984664660778415 
-1.0 1:0.132303702760083 2:-0.27848085119815 3:-0.498265508063488 4:-0.663393936897178 5:0.0499255696183829 6:-0.2 7:0.667541032751257 8:-0.910899737940411 
-1.0 1:0.02176310025979 2:-0.245399892810865 3:-0.427210124501276 4:-0.649261020747886 5:-0.0195169676129995 6:-0.2 7:0.659147118339207 8:-0.900029117732706 
1.0 1:0.0168539252753046 2:-0.00512196465808445 3:-0.480920175590026 4:-0.542456839413055 5:0.0720248498616429 6:-0.2 7:0.887872029531647 8:-1.0 
-1.0 1:-0.121626026218831 2:0.110267382121982 3:-0.387042272720173 4:-0.494522489343731 5:0.155351130523204 6:0.0 7:0.965129443731603 8:-1.0 
-1.0 1:-0.188038849741145 2:0.0530787620226674 3:-0.460318007944214 4:-0.448245773294178 5:-0.0689042227358989 6:0.0 7:0.542581527607803 8:-0.678345011678344 
1.0 1:-0.171376091093139 2:-0.00799532976665285 3:-0.275716386285176 4:-0.387440907262915 5:-0.0973593217017438 6:0.0 7:0.427936338579174 8:-0.597508125677137 
1.0 1:-0.0432761778706924 2:0.00472159883980083 3:-0.180275044211887 4:-0.28077820496264 5:0.108720896993491 6:0.2 7:0.859637633704435 8:-1.0 
-1.0 1:-0.129257439841533 2:-0.0552007010177842 3:-0.0274256183618212 4:-0.357186302915482 5:0.00693797310652244 6:0.0 7:0.815105872080336 8:-0.908045977011496 
-1.0 1:-0.233647389373663 2:-0.213521342432373 3:0.00989030392362467 4:-0.326272990266326 5:-0.0734009710293669 6:-0.2 7:0.738921632831258 8:-0.750732476898796 
0.9698536709469888 1:-0.160084594961038 2:-0.208723286753869 3:0.00365523405786861 4:-0.353461879755008 5:-0.09062850731438 6:-0.2 7:0.754857018118314 8:-0.783637592968213 
1.0 1:-0.24277647035667 2:-0.251596931637291 3:-0.0920426434024456 4:-0.24403247915752 5:-0.259149384313329 6:-0.4 7:0.0550854223215758 8:0.542876901798056 
1.0 1:-0.246437478952896 2:-0.171288357141552 3:-0.0836381696349986 4:-0.171889455843101 5:-0.00542402262862918 6:-0.4 7:0.694374999999994 8:-1.0 
-1.0 1:-0.186759466152192 2:-0.187895596034604 3:-0.100167084584392 4:-0.0284368406117294 5:0.0381147550908627 6:-0.2 7:0.875798026697615 8:-1.0 
-1.0 1:-0.137651224624698 2:-0.223876205532461 3:-0.204178993707359 4:0.0216020032237079 5:0.0353718406283676 6:0.0 7:0.843947810360419 8:-1.0 
-1.0 1:-0.242194341388085 2:-0.243927851844878 3:-0.25612362586923 4:-0.0281332114796071 5:-0.205798693798858 6:0.0 7:-0.037107880642703 8:-4.74383301696579E-4 
1.0 1:-0.185837005947526 2:-0.260934010529092 3:-0.261261545818084 4:-0.078154469317947 5:-0.235629745192005 6:-0.2 7:-0.261285386381024 8:0.277514231499048 
-1.0 1:-0.358681047147402 2:-0.374876731744498 3:-0.28805250540214 4:-0.144882098328277 5:-0.2997695406075 6:-0.4 7:-0.682096403978578 8:0.799335863377608 
-1.0 1:-0.49213515940659 2:-0.423275930297835 3:-0.373080293800463 4:-0.21393280928873 5:-0.400212529975508 6:-0.4 7:-0.877035458834273 8:1.0 
-1.0 1:-0.658312601214357 2:-0.500441488891751 3:-0.490643615206063 4:-0.361725017394587 5:-0.55929533566468 6:-0.4 7:-0.892028148303743 8:1.0 
1.0 1:-0.449982471355376 2:-0.431117172648168 3:-0.39558652248066 4:-0.31444845745695 5:-0.221620942211143 6:-0.4 7:-0.284891533883662 8:0.449244317505654 
1.0 1:-0.34092716069278 2:-0.324604179126973 3:-0.351339138834625 4:-0.273361724452469 5:-0.0497109063539215 6:-0.2 7:0.0406987905548113 8:0.0455789598952747 
-1.0 1:-0.317524360344619 2:-0.420338713027976 3:-0.431649574086543 4:-0.28426123543637 5:-0.133379198797241 6:-0.2 7:-0.0758302937224046 8:0.190051172200408 
-1.0 1:-0.220433518724032 2:-0.444572948225426 3:-0.420523336241586 4:-0.310130551560819 5:-0.116322352379867 6:-0.2 7:0.0667088874815254 8:-0.156925031766196 
1.0 1:-0.0537702904058894 2:-0.448130942031646 3:-0.397979583452287 4:-0.334721928202965 5:-0.0785201966474804 6:0.0 7:0.243807619682327 8:-0.466900175131339 
-1.0 1:-0.28158277063784 2:-0.456116321935374 3:-0.458743406879039 4:-0.35223817219147 5:-0.30101182338034 6:-0.2 7:-0.23893805309735 8:0.194360086767907 
1.0 1:-0.199601048836474 2:-0.333419622453512 3:-0.328586293930526 4:-0.284843215796122 5:0.043205444060886 6:-0.2 7:0.969822485207101 8:-1.0 
-1.0 1:-0.181975546405183 2:-0.306944886205844 3:-0.398094368839211 4:-0.339975482565656 5:-0.0403549526522669 6:-0.4 7:0.832523578165186 8:-0.906232132647225 
-1.0 1:-0.159263291800194 2:-0.229250642379043 3:-0.406255242583323 4:-0.32220480076552 5:-0.0137558118177529 6:-0.2 7:0.689679715302492 8:-1.0 
-1.0 1:-0.248109127941997 2:-0.179158234410342 3:-0.45527106017458 4:-0.340561961565643 5:-0.168211486358934 6:-0.2 7:0.18108747044917 8:-0.330565646081987 
1.0 1:-0.0510620195827659 2:-0.199363997360095 3:-0.359711048003076 4:-0.308632189055111 5:-0.0128131891892125 6:0.0 7:0.720409771473604 8:-1.0 
-1.0 1:-0.213881965559817 2:-0.251098426490023 3:-0.343348957559788 4:-0.273047659561333 5:-0.0512697833648612 6:0.2 7:0.739637509850282 8:-1.0 
-1.0 1:-0.246557462822456 2:-0.260894252644041 3:-0.338873545075749 4:-0.340023934358896 5:-0.161882505535925 6:0.2 7:0.397110266159691 8:-0.572878228782279 
-0.21773473250456976 1:-0.329219121089466 2:-0.299973046288985 3:-0.319355257548221 4:-0.379659000892164 5:-0.243028423025821 6:0.0 7:0.0892775665399224 8:-0.106088560885606 
1.0 1:-0.215903158625562 2:-0.283797808961402 3:-0.217796819800062 4:-0.371877784125762 5:-0.118135823068542 6:0.0 7:0.41384030418251 8:-0.101135190918474 
1.0 1:-0.253033503260641 2:-0.180639980794136 3:-0.254261632026413 4:-0.313035642020899 5:-0.0456358669572848 6:0.2 7:0.490165631469982 8:-1.0 
-1.0 1:-0.236177284179965 2:-0.274770933869153 3:-0.287629030137974 4:-0.293550847724697 5:-0.04284640396641 6:0.2 7:0.703933747412018 8:-1.0 
-1.0 1:-0.263202012736759 2:-0.313324011234378 3:-0.310013503225069 4:-0.301108990298046 5:-0.204824057967793 6:0.0 7:-0.0672877846790869 8:0.23038810900082 
1.0 1:-0.216019292334554 2:-0.336358765878238 3:-0.31702170428215 4:-0.266778992724153 5:-0.187455979884385 6:0.0 7:-0.0848861283643947 8:0.258464079273334 
1.0 1:-0.226870643266624 2:-0.270054325784613 3:-0.309493682852937 4:-0.192718875547202 5:-0.100200443936742 6:0.0 7:0.3524844720497 8:-0.439306358381512 
-1.0 1:-0.3474999038453 2:-0.371881746592545 3:-0.289637714549936 4:-0.270716180862544 5:-0.250378093106319 6:0.0 7:-0.462732919254651 8:0.861271676300555 
-1.0 1:-0.546492053665696 2:-0.489646053829067 3:-0.471599174446201 4:-0.37800233582266 5:-0.538009731707245 6:-0.2 7:-0.912890967553347 8:1.0 
1.0 1:-0.448462905350277 2:-0.443470873557369 3:-0.450650934455055 4:-0.354716080738581 5:-0.35637353593221 6:0.0 7:-0.662946428571419 8:0.80556017979024 
1.0 1:-0.562890649388795 2:-0.487566829256493 3:-0.529408380934127 4:-0.406830924758841 5:-0.493307108742497 6:-0.2 7:-0.949703108627317 8:1.0 
1.0 1:-0.465974871890406 2:-0.431730909466045 3:-0.425105740211076 4:-0.361491699454225 5:-0.131826667193751 6:-0.2 7:-0.239932697700503 8:0.2736089841756 
-1.0 1:-0.379154321730924 2:-0.45261424143448 3:-0.461493838430508 4:-0.310788719098872 5:-0.114168106482737 6:0.0 7:-0.137951450562459 8:0.134274137208329 
1.0 1:-0.162422026730477 2:-0.443212563698845 3:-0.445052100243812 4:-0.363162085005782 5:-0.0628784868205101 6:0.2 7:0.0622558593750044 8:-0.0644124633226228 
-1.0 1:-0.185263389331978 2:-0.393998304133688 3:-0.418840160524969 4:-0.356032813777051 5:-0.079480995399472 6:0.2 7:0.0964815495893028 8:-0.0982255134832929 
1.0 1:-0.0361823008578036 2:-0.374504813188606 3:-0.378195990041067 4:-0.358153681110871 5:-0.0497406753339921 6:0.2 7:0.345280764635607 8:-0.621282694374771 
-1.0 1:-0.169107228993981 2:-0.395118493099176 3:-0.400782327499096 4:-0.329724577477275 5:-0.0663316493134672 6:0.2 7:0.72420602270857 8:-1.0 
-1.0 1:-0.234564363508802 2:-0.380511595312532 3:-0.451919976320957 4:-0.38415251255509 5:-0.18604320117965 6:0.2 7:0.412425531914902 8:-0.535873962103484 
1.0 1:-0.244397278970802 2:-0.246868928179081 3:-0.44931830642246 4:-0.375393859633024 5:-0.128100154345759 6:0.4 7:0.586042553191494 8:-0.753033851394518 
1.0 1:-0.147166887720023 2:-0.198538972736973 3:-0.35823319140005 4:-0.316027784335156 5:0.0494846106671989 6:0.4 7:0.933029353092051 8:-1.0 
1.0 1:-0.142928850022559 2:-0.0987416004459188 3:-0.33992381296015 4:-0.282690948606494 5:0.0442431576091553 6:0.6 7:0.664469118667589 8:-1.0 
-1.0 1:-0.0988215040655922 2:-0.156620877089549 3:-0.333909903676719 4:-0.282464717610472 5:0.0749282599373164 6:0.8 7:0.855520504731863 8:-1.0 
-1.0 1:-0.0541306879844921 2:-0.170509714184425 3:-0.298422340355707 4:-0.304510853716588 5:-0.0139546614641711 6:0.6 7:0.760921747479602 8:-0.916042659405495 
1.0 1:-0.0168564163031745 2:-0.152893092560764 3:-0.167436813586509 4:-0.287540517674873 5:0.0535207458332818 6:0.8 7:0.923501912452181 8:-1.0 
-1.0 1:-0.11639778841476 2:-0.153724685725191 3:-0.180422135332138 4:-0.256374217427342 5:-0.00394776818476927 6:0.8 7:0.657878897315517 8:-1.0 
-1.0 1:-0.217285868607211 2:-0.216635464645118 3:-0.152541403590016 4:-0.283207090065202 5:-0.171745814056816 6:0.6 7:0.319128445889006 8:-0.498037816625038 
1.0 1:-0.248848004705 2:-0.208716735182027 3:-0.217032334586913 4:-0.291429078137488 5:-0.125628288769528 6:0.6 7:0.422174070061395 8:-0.615777080062796 
-1.0 1:-0.384739867620284 2:-0.268977758910899 3:-0.301423771757429 4:-0.319784517969919 5:-0.392424887759865 6:0.4 7:-0.735294117647054 8:1.0 
1.0 1:-0.520892802889218 2:-0.334734309298313 3:-0.36048855710703 4:-0.276828495463239 5:-0.446399708034083 6:0.2 7:-0.89776876267748 8:1.0 
1.0 1:-0.53058733294437 2:-0.403861500399604 3:-0.366374424005053 4:-0.290671588470395 5:-0.354963479578065 6:0.0 7:-0.697879437693595 8:1.0 
1.0 1:-0.477924659538018 2:-0.433387617816806 3:-0.388543372780325 4:-0.247572737926137 5:-0.30821153983626 6:0.0 7:-0.763164164879675 8:1.0 
1.0 1:-0.497745122705563 2:-0.466163991116763 3:-0.392783103519867 4:-0.304623409525608 5:-0.253023293312294 6:0.0 7:-0.761972837741249 8:0.998327479511633 
1.0 1:-0.343011910210624 2:-0.45332567496384 3:-0.358980116550925 4:-0.304967886917069 5:-0.19642945892676 6:0.0 7:-0.705980462234937 8:0.919719016557965 
1.0 1:-0.206861364965914 2:-0.454612243335245 3:-0.340733245021089 4:-0.294879963032606 5:-0.0736391490648952 6:0.0 7:-0.386516853932591 8:0.414800000000014 
-1.0 1:-0.217536621411921 2:-0.467619994225986 3:-0.403082929597297 4:-0.30376907712352 5:-0.125397168125999 6:-0.2 7:-0.325835577380014 8:0.546400000000012 
-0.4241684848553983 1:-0.174456408841854 2:-0.406268005950938 3:-0.404927133706085 4:-0.303494254719197 5:-0.0790600438884486 6:0.0 7:-0.126077242259824 8:-0.768762677484764 
-1.0 1:-0.192129083840542 2:-0.430309222952626 3:-0.441065935994128 4:-0.313927833440364 5:-0.13150783031728 6:-0.2 7:0.321121287815703 8:-0.589449541284403 
-1.0 1:-0.26018346349752 2:-0.373564932503699 3:-0.465781985569508 4:-0.315376936837718 5:-0.235778866396589 6:-0.4 7:-0.324451845684143 8:0.744266055045864 
1.0 1:-0.165513534896759 2:-0.224474823447041 3:-0.417772759627107 4:-0.262738163429798 5:0.0685282021472597 6:-0.2 7:0.877541899441351 8:-1.0 
1.0 1:-0.0552865707449449 2:-0.160092729044302 3:-0.371466377848853 4:-0.26669511343846 5:0.164987128286221 6:-0.2 7:0.914615144904961 8:-1.0 
-1.0 1:-0.170259424288046 2:-0.206500360280307 3:-0.380403315955162 4:-0.314519020278119 5:-0.0893416201024354 6:-0.2 7:0.366780928638212 8:-0.313549394767669 
-1.0 1:-0.260518576636668 2:-0.276500007677124 3:-0.44713313874297 4:-0.378783460965417 5:-0.299100118623477 6:-0.2 7:-0.326581489560605 8:0.555251854744244 
1.0 1:-0.366116857060414 2:-0.388461923230726 3:-0.456029284169742 4:-0.440023389077238 5:-0.534417604899089 6:-0.2 7:-0.884090344998757 8:1.0 
-1.0 1:-0.664799112256353 2:-0.522032003892325 3:-0.494579143131392 4:-0.523581075453145 5:-0.668394867214853 6:-0.2 7:-0.955421023665377 8:1.0 
0.49440638387901215 1:-0.853639668722722 2:-0.577137871646663 3:-0.545287252250312 4:-0.565652836198051 5:-0.67299633202405 6:-0.4 7:-0.837623476818807 8:1.0 
1.0 1:-0.755975139281461 2:-0.584211121507076 3:-0.52914214674576 4:-0.532656623073344 5:-0.465391424888356 6:-0.4 7:-0.785276515970871 8:0.94177560349667 
1.0 1:-0.654053491954427 2:-0.57431908061944 3:-0.530011515710133 4:-0.541152756153278 5:-0.36073708674368 6:-0.6 7:-0.789458504578557 8:0.946427139305475 
1.0 1:-0.50504505073863 2:-0.544960915280281 3:-0.540722114348003 4:-0.488162812438336 5:-0.304742602788365 6:-0.6 7:-0.816713533780379 8:0.976742320955974 
1.0 1:-0.363346286502123 2:-0.645338070465532 3:-0.574965265296251 4:-0.460925003986389 5:-0.264399649203944 6:-0.8 7:-0.824550380900029 8:1.0 
1.0 1:-0.193460119520237 2:-0.661874805789468 3:-0.533008474113555 4:-0.432662123510685 5:-0.110257093277263 6:-0.6 7:-0.503962609225768 8:0.688287227781043 
-1.0 1:-0.247598086132731 2:-0.632040953456431 3:-0.566408861213989 4:-0.44156098429794 5:-0.183213687343169 6:-0.6 7:-0.532981172964925 8:0.7647742685526 
-1.0 1:-0.221474483327465 2:-0.549961245123946 3:-0.544982946667474 4:-0.431901179766447 5:-0.127677413486434 6:-0.6 7:0.0479792011344669 8:-0.0511227902532104 
1.0 1:-0.22219619934388 2:-0.454037464702521 3:-0.52126672110605 4:-0.440468168966116 5:-0.150660900546761 6:-0.8 7:0.0336328626444029 8:-0.353474320241673 
-0.365682030916772 1:-0.230541522688485 2:-0.367726104198739 3:-0.607830419258926 4:-0.470221826942922 5:-0.176056248706856 6:-0.8 7:-0.249574588769147 8:0.131419939577055 
-1.0 1:-0.425975743914674 2:-0.384623003002436 3:-0.719942274913331 4:-0.515050014333032 5:-0.388678637301914 6:-0.8 7:-0.92072072072072 8:1.0 
0.6910357413923417 1:-0.430866126725699 2:-0.422208743422039 3:-0.698352745966034 4:-0.542366533481623 5:-0.376404341170559 6:-0.8 7:-0.794362588084559 8:1.0 
1.0 1:-0.358332509322891 2:-0.358686784815133 3:-0.595045990873789 4:-0.497468694677977 5:-0.131892849911636 6:-0.6 7:-0.172966047405505 8:0.0646094503375081 
1.0 1:-0.315276960843848 2:-0.331301365143152 3:-0.49491767490314 4:-0.462285523714905 5:-0.079085787534768 6:-0.4 7:0.0384368994234479 8:-0.253616200578592 
-1.0 1:-0.29805262173508 2:-0.325525104405746 3:-0.41562449718059 4:-0.521980322867158 5:-0.0985509074269842 6:-0.4 7:0.0464445868033325 8:-0.337920489296643 
-1.0 1:-0.229440516137193 2:-0.407504965118762 3:-0.393519396258738 4:-0.581821215826706 5:-0.219403708610397 6:-0.4 7:-0.227212431305671 8:0.287971457696234 
1.0 1:-0.199729023978889 2:-0.391778530070382 3:-0.408872752964165 4:-0.553705634474564 5:-0.213275365661068 6:-0.4 7:-0.308087535680313 8:0.367741935483881 
-1.0 1:-0.397068937555087 2:-0.470987429866196 3:-0.460208190295975 4:-0.550904389949247 5:-0.36011296705783 6:-0.4 7:-0.898571724280695 8:1.0 
-1.0 1:-0.49947088781909 2:-0.509264589250633 3:-0.491982681247408 4:-0.515317407322729 5:-0.407639584056309 6:-0.6 7:-0.886047979797976 8:1.0 
1.0 1:-0.520510989415807 2:-0.51190122842734 3:-0.498438362354553 4:-0.463874452619336 5:-0.353746343145165 6:-0.6 7:-0.836793540945795 8:1.0 
1.0 1:-0.503945775187081 2:-0.457903586417791 3:-0.55540869529026 4:-0.44050661542508 5:-0.358970551859374 6:-0.8 7:-0.770255407552251 8:1.0 
1.0 1:-0.518550228914469 2:-0.448594409711064 3:-0.550435793507522 4:-0.45799122076608 5:-0.330856779828447 6:-0.8 7:-0.893926432848596 8:1.0 
1.0 1:-0.463815949039815 2:-0.538232084372458 3:-0.58553125510606 4:-0.474832365776431 5:-0.342247241283233 6:-0.8 7:-0.939629045944968 8:1.0 
1.0 1:-0.333503046754035 2:-0.52078450913029 3:-0.549256521679521 4:-0.447067092886698 5:-0.174466961106261 6:-0.6 7:-0.617793594306048 8:0.619890569681366 
-1.0 1:-0.362637457294439 2:-0.552650405324138 3:-0.566385955651386 4:-0.463592725568496 5:-0.247027254977729 6:-0.6 7:-0.813966800228964 8:0.926581011179715 
-1.0 1:-0.284719258403305 2:-0.492829761088304 3:-0.482235747479076 4:-0.476448137064443 5:-0.156789093971866 6:-0.6 7:-0.622493461203133 8:0.567554117939784 
1.0 1:-0.113608317204242 2:-0.394248423488838 3:-0.385892788636346 4:-0.405178390507327 5:0.0897636610251116 6:-0.6 7:0.800788091068295 8:-1.0 
-1.0 1:-0.107850972151847 2:-0.354882771636141 3:-0.457132278805434 4:-0.430299963332494 5:-0.0531380980750985 6:-0.8 7:0.182602570875159 8:-0.590008145533546 
-1.0 1:-0.154893911751006 2:-0.299957887323565 3:-0.46685447041389 4:-0.420534478502861 5:-0.0591262338771772 6:-0.6 7:0.281915830251799 8:-0.743144175943523 
1.0 1:-0.104115613221382 2:-0.286441724714254 3:-0.467160379828336 4:-0.413889147868789 5:-0.0862776689325098 6:-0.4 7:0.28649410107413 8:-0.750203638338316 
1.0 1:-0.109646774439348 2:-0.239117504943347 3:-0.420462404059779 4:-0.350396783187505 5:-0.0581460308123807 6:-0.2 7:0.480190174326462 8:-1.0 
-1.0 1:-0.350802645515857 2:-0.284787996047703 3:-0.464798371985612 4:-0.372785249424965 5:-0.249031025130196 6:-0.2 7:-0.183659094911072 8:0.0610751477624432 
1.0 1:-0.277755047542698 2:-0.23341550539862 3:-0.394498660717067 4:-0.398062995677228 5:-0.155456019996164 6:0.0 7:0.0070370370370223 8:-0.321699971854764 
-1.0 1:-0.336946672068721 2:-0.302197414485566 3:-0.380936890991369 4:-0.429190608026581 5:-0.227207474181117 6:0.0 7:-0.363601532567048 8:0.434573002754818 
1.0 1:-0.381860506798361 2:-0.298995034626061 3:-0.393737400204667 4:-0.447365213130965 5:-0.274094740578045 6:0.0 7:-0.717834271298275 8:1.0 
-1.0 1:-0.46708226256366 2:-0.358153273937419 3:-0.400823756840952 4:-0.446023903945171 5:-0.327909603173775 6:0.0 7:-0.665167865707433 8:1.0 
1.0 1:-0.340408480131808 2:-0.429927636770145 3:-0.370442789819881 4:-0.428999066970406 5:-0.213637862832554 6:0.0 7:-0.395989537925015 8:0.698455503799946 
-1.0 1:-0.422787446876423 2:-0.436178206283447 3:-0.372625414439984 4:-0.408454490265869 5:-0.270816645588107 6:0.0 7:-0.715427380125085 8:1.0 
-1.0 1:-0.441837355925616 2:-0.486036410333808 3:-0.438190930229301 4:-0.405854353982574 5:-0.335022382009083 6:-0.2 7:-0.819106317411404 8:1.0 
1.0 1:-0.408322351463784 2:-0.493169318304585 3:-0.417891441805569 4:-0.402030277890152 5:-0.288890879561864 6:-0.4 7:-0.877869897959186 8:1.0 
1.0 1:-0.382719280733122 2:-0.531219869759053 3:-0.452247126531882 4:-0.397091303348849 5:-0.294037833314886 6:-0.4 7:-0.872183908045975 8:1.0 
-1.0 1:-0.371183021854699 2:-0.442981197717529 3:-0.504355263396738 4:-0.369230868623359 5:-0.17237423771855 6:-0.4 7:-0.463706233988052 8:0.619830934429988 
-1.0 1:-0.324675887525775 2:-0.466025750603065 3:-0.485260957426074 4:-0.352042266262388 5:-0.165392295297138 6:-0.6 7:-0.402133850630464 8:0.542450142450156 
1.0 1:-0.197080893702107 2:-0.39720559226827 3:-0.459964534370344 4:-0.351111450201842 5:-0.05355036616799 6:-0.6 7:0.345206147840937 8:-0.347797062750336 
1.0 1:-0.0882353123684819 2:-0.306161472528349 3:-0.40970290215313 4:-0.291566009264398 5:0.0781774803704856 6:-0.4 7:0.931680899812526 8:-1.0 
-1.0 1:-0.0263273720253165 2:-0.249907377956909 3:-0.409497567680535 4:-0.293635292060161 5:0.0517490180422604 6:-0.4 7:0.837493361656926 8:-1.0 
-1.0 1:-0.0584007470752926 2:-0.262816704290334 3:-0.352593097627486 4:-0.347309116395102 5:0.00657989354117272 6:-0.2 7:0.637873754152818 8:-1.0 
-1.0 1:-0.0712597947229804 2:-0.240580053245431 3:-0.37840624117962 4:-0.337468367902768 5:-0.0673548128585343 6:-0.2 7:0.554515252189673 8:-0.882177161152625 
-1.0 1:-0.115669536337868 2:-0.185815731846632 3:-0.344435773255424 4:-0.335425834627989 5:-0.060252904630567 6:0.0 7:0.668982180610088 8:-1.0 
-1.0 1:-0.286897453986789 2:-0.226764540749166 3:-0.359540827481253 4:-0.365242235782949 5:-0.210746173385681 6:-0.2 7:0.238900634249466 8:-0.285319949811789 
1.0 1:-0.237272829418754 2:-0.15432554012057 3:-0.287235900148395 4:-0.345080829220648 5:-0.0577858311939592 6:0.0 7:0.662000337325 8:-1.0 
1.0 1:-0.311279621733242 2:-0.223552428173761 3:-0.337121466176756 4:-0.331234884267794 5:-0.190591200988283 6:0.0 7:0.254174397031541 8:-0.155431365700326 
0.3770245039044423 1:-0.353101662978079 2:-0.259192613988939 3:-0.341288734714181 4:-0.367988878991674 5:-0.268796808078651 6:0.0 7:-0.746956061408143 8:1.0 
1.0 1:-0.399313322563339 2:-0.317756457592042 3:-0.32162899705926 4:-0.360822967360796 5:-0.272376740774728 6:0.0 7:-0.914893617021263 8:1.0 
1.0 1:-0.268953349460947 2:-0.343026933767314 3:-0.285177594989969 4:-0.319372031327353 5:-0.133224468921952 6:0.0 7:-0.354693366708396 8:0.207226354941568 
1.0 1:-0.29852284528726 2:-0.330155360974474 3:-0.241900659403616 4:-0.275827964589239 5:-0.055867152627991 6:0.2 7:0.205516495402918 8:-0.458731845554375 
1.0 1:-0.188506471855866 2:-0.30708578584915 3:-0.239611098755607 4:-0.269306418927304 5:-0.00515655060750553 6:0.2 7:0.863716814159296 8:-1.0 
1.0 1:-0.15427077312491 2:-0.312304952223737 3:-0.250737441047856 4:-0.258589117968058 5:-0.0887819953303648 6:0.0 7:0.470191529538704 8:-0.709601873536289 
-1.0 1:-0.236735912059785 2:-0.394920662972802 3:-0.342544914125356 4:-0.277004225435336 5:-0.289601048381932 6:-0.2 7:-0.673050984623689 8:0.708263633322202 
1.0 1:-0.209166679649157 2:-0.292945930977212 3:-0.348756798165292 4:-0.237522651313369 5:-0.0985608400539453 6:-0.2 7:0.219854329646616 8:-0.399130143860819 
0.6776124488240338 1:-0.264499713350433 2:-0.347654596924296 3:-0.367325179066858 4:-0.226917323378743 5:-0.125051067928261 6:-0.2 7:0.148637712435925 8:-0.310806289728991 
-1.0 1:-0.351927019166453 2:-0.333447918898171 3:-0.394641422165363 4:-0.261336891743628 5:-0.198241990163424 6:-0.4 7:-0.270569193417862 8:0.209100033456021 
-1.0 1:-0.322124268947362 2:-0.292158090687231 3:-0.383147174837143 4:-0.257534874462795 5:-0.167226598652497 6:-0.2 7:-0.241554054054065 8:0.29808068938504 
1.0 1:-0.0637606219417034 2:-0.178154481726524 3:-0.315435294771678 4:-0.222697157304452 5:0.0885736371471251 6:-0.2 7:0.909853752097813 8:-1.0 
-1.0 1:-0.186181157360393 2:-0.239354226740761 3:-0.295466123342998 4:-0.277381602665953 5:-0.0491101711443592 6:-0.2 7:0.318610720738815 8:-0.62986497220017 
-1.0 1:-0.0812293192486531 2:-0.207603643560021 3:-0.285334500887134 4:-0.249194942447929 5:0.083462154260052 6:0.0 7:0.86257624686041 8:-1.0 
-1.0 1:-0.062109092133569 2:-0.252568082678582 3:-0.263480334477066 4:-0.262835205018347 5:-0.0283253512712083 6:0.0 7:0.483449883449886 8:-0.832296890672022 
0.02370739303356415 1:-0.0587266373074818 2:-0.230869707193682 3:-0.227372823142576 4:-0.252461861219364 5:-0.0480944325977033 6:0.0 7:0.551204351204349 8:-0.905638122198631 
0.03265451054103605 1:-0.108752828892548 2:-0.0943031017230224 3:-0.159450115109899 4:-0.219867791181658 5:0.0875830819931132 6:0.0 7:0.780316111037323 8:-1.0 
-1.0 1:-0.00352300933724115 2:-0.105957318982731 3:-0.154065140298496 4:-0.161104770257004 5:0.126722604727926 6:0.0 7:0.840475374242943 8:-1.0 
-1.0 1:-0.0749285401618046 2:-0.0835769675767455 3:-0.1657427662686 4:-0.182475990871847 5:0.0829071152348746 6:0.2 7:0.69869513641756 8:-1.0 
-1.0 1:-0.080955975823964 2:-0.0750107496949473 3:-0.206281302656291 4:-0.16785934973548 5:-0.0394571544815885 6:0.2 7:0.538513060951103 8:-0.804112554112544 
0.07723006316625158 1:0.00520942470390362 2:-0.0163212601868941 3:-0.142322905321025 4:-0.103888645125497 5:0.0909306293124872 6:0.2 7:0.963101470954874 8:-1.0 
-1.0 1:-0.113667284967233 2:-0.126881582923827 3:-0.0926871460812971 4:-0.100194316353552 5:-0.0193860338956727 6:0.2 7:0.735368956743001 8:-0.863008654023207 
-1.0 1:-0.194777084826698 2:-0.111616634394829 3:-0.146270277476563 4:-0.13000274967381 5:-0.0826852641461489 6:0.2 7:0.561120888046567 8:-0.769839808506721 
-1.0 1:-0.448220596014138 2:-0.323803191458814 3:-0.26554134157511 4:-0.245133193008048 5:-0.493281907870944 6:0.0 7:-0.665899553269252 8:0.978515250335684 
1.0 1:-0.395977301208146 2:-0.293448402690472 3:-0.23023514546787 4:-0.254164429842259 5:-0.333012053024174 6:0.0 7:-0.448107761385508 8:0.802598409928264 
1.0 1:-0.490818203793724 2:-0.300998327614135 3:-0.234722308130188 4:-0.245253264516363 5:-0.271020570469227 6:0.0 7:-0.451186658114178 8:0.807252278456473 
-1.0 1:-0.574245644627208 2:-0.430628422271363 3:-0.368498683847026 4:-0.243025815607177 5:-0.404464177056586 6:-0.2 7:-0.899099543604289 8:1.0 
1.0 1:-0.587569135678286 2:-0.490209211865641 3:-0.363549802758092 4:-0.288853557562157 5:-0.36187461703365 6:-0.2 7:-0.776335712740642 8:1.0 
1.0 1:-0.381029640724593 2:-0.518108838849265 3:-0.423548090764403 4:-0.29317003505943 5:-0.318415088947323 6:-0.4 7:-0.849664719878861 8:1.0 
1.0 1:-0.417125200106948 2:-0.507772445799977 3:-0.418068092437731 4:-0.281186931056849 5:-0.278249821941769 6:-0.6 7:-0.894873458792989 8:1.0 
1.0 1:-0.369283694985192 2:-0.537871150483022 3:-0.398874931507895 4:-0.264785871967788 5:-0.15315338083071 6:-0.6 7:-0.693056456846203 8:0.738618854181259 
-1.0 1:-0.329423054260436 2:-0.566142282263548 3:-0.48321419912114 4:-0.350804155729436 5:-0.257096770809445 6:-0.8 7:-0.918185393995009 8:1.0 
-1.0 1:-0.32374028378963 2:-0.571118429410952 3:-0.528730861758233 4:-0.344704007796799 5:-0.253814938734998 6:-0.8 7:-0.900232433398892 8:1.0 
1.0 1:-0.292209535916966 2:-0.418520551264657 3:-0.535222455411591 4:-0.378027250715085 5:-0.193255171187303 6:-0.8 7:-0.800822456642241 8:0.854221289984282 
-0.09845538638108864 1:-0.331583878688886 2:-0.466790799326653 3:-0.547055880073522 4:-0.389664605784262 5:-0.260844141628318 6:-0.8 7:-0.869734789391571 8:1.0 
-1.0 1:-0.37187114476706 2:-0.461868209330591 3:-0.592178813374927 4:-0.391224139388388 5:-0.209908402688797 6:-0.6 7:-0.503799950968379 8:0.881247330200779 
-1.0 1:-0.33948599008504 2:-0.415642692696197 3:-0.598546618697644 4:-0.442732812523609 5:-0.239660964381864 6:-0.6 7:-0.798480019612644 8:1.0 
-1.0 1:-0.434756325010114 2:-0.473107199905742 3:-0.651215123710839 4:-0.515270803750818 5:-0.401379276030935 6:-0.8 7:-0.931450954790276 8:1.0 
0.5305061757317304 1:-0.518420955786077 2:-0.506870585505557 3:-0.571773348643071 4:-0.553260296280562 5:-0.432137159090838 6:-0.8 7:-0.944897686237797 8:1.0 
1.0 1:-0.380111070747289 2:-0.443066045530585 3:-0.538846428102675 4:-0.507642428265306 5:-0.187558318631473 6:-0.6 7:-0.43694416095641 8:0.331783846600815 
-1.0 1:-0.369931331838889 2:-0.462281937337061 3:-0.52958988223833 4:-0.538094668772193 5:-0.144176720718005 6:-0.4 7:-0.327496661225704 8:0.182701844872051 
-1.0 1:-0.325281676753171 2:-0.412989951937587 3:-0.468871492631333 4:-0.525496018159052 5:-0.121023968018128 6:-0.2 7:-0.24795963792847 8:0.0763737353699556 
1.0 1:-0.130095993041951 2:-0.350048099762631 3:-0.414705371927999 4:-0.490189874771707 5:6.51464903626664E-4 6:0.0 7:0.529077476794853 8:-0.822074215033312 
1.0 1:0.0115469889643298 2:-0.315184660366223 3:-0.369706610074339 4:-0.372662586640344 5:0.0668741205488603 6:0.0 7:0.88113604488079 8:-1.0 
-1.0 1:-0.0552975866943489 2:-0.266687655872026 3:-0.351053057454961 4:-0.373111127622428 5:0.0380146611643364 6:0.2 7:0.773396026088281 8:-1.0 
-1.0 1:-0.0969161541250313 2:-0.286604923719473 3:-0.388579728015171 4:-0.38231506612974 5:-0.0621535429211872 6:0.2 7:0.634157439708783 8:-0.837234042553187 
1.0 1:-0.0197443789612701 2:-0.207939916120699 3:-0.307517276001684 4:-0.304067253544867 5:0.061766346225639 6:0.2 7:0.938135938135933 8:-1.0 
-1.0 1:-0.111930476212045 2:-0.13967678197245 3:-0.303447264578045 4:-0.298619016546185 5:-0.0285836773986018 6:0.2 7:0.66984369043081 8:-0.902916346891798 
-1.0 1:-0.314163998722118 2:-0.180544332775348 3:-0.381290223747675 4:-0.345540547822458 5:-0.29019140132799 6:0.0 7:-0.0369087275149899 8:0.166700840680739 
1.0 1:-0.348398061914313 2:-0.245895828893807 3:-0.359979437089639 4:-0.345152706867808 5:-0.257712145844566 6:0.0 7:-0.356834053874287 8:0.316554567151221 
1.0 1:-0.21323446378566 2:-0.184216641691424 3:-0.304574710568247 4:-0.319205203629102 5:-0.032446484352798 6:0.2 7:0.366810774858663 8:-0.447698744769874 
-1.0 1:-0.337869972537251 2:-0.216216859044294 3:-0.306652968817993 4:-0.307526814248791 5:-0.128326650445984 6:0.2 7:-0.0688158710477452 8:0.0151615029663974 
-1.0 1:-0.338310654468798 2:-0.275561751771578 3:-0.251421386823938 4:-0.304590289732314 5:-0.155915001369193 6:0.0 7:-0.176276090101265 8:0.186552406064613 
1.0 1:-0.28763266796068 2:-0.372584491323376 3:-0.257430416019053 4:-0.343687441866677 5:-0.289070827310501 6:-0.2 7:-0.834676586071502 8:1.0 
1.0 1:-0.306452325653066 2:-0.406653104029298 3:-0.320772120731754 4:-0.334943340552973 5:-0.288303391687323 6:-0.4 7:-0.899543378995439 8:1.0 
-1.0 1:-0.487970118507144 2:-0.437324135681526 3:-0.367894771743621 4:-0.366776931512098 5:-0.358991685851365 6:-0.6 7:-0.822654462242555 8:1.0 
1.0 1:-0.397032652469769 2:-0.457919518726117 3:-0.344988129977851 4:-0.3310990586752 5:-0.192345273120485 6:-0.6 7:-0.45474683544304 8:0.506266786034029 
-1.0 1:-0.353056632934396 2:-0.430029065711319 3:-0.369654445826816 4:-0.270838252431145 5:-0.124639150277806 6:-0.6 7:-0.265189873417717 8:0.238137869292746 
1.0 1:-0.230549266815363 2:-0.318795398078679 3:-0.384229999993168 4:-0.22487070073004 5:-0.0632299279326426 6:-0.4 7:-0.0158227848101337 8:-0.114592658907776 
-1.0 1:-0.329601061497166 2:-0.394579823102878 3:-0.46381151475165 4:-0.314298685664904 5:-0.302354936055319 6:-0.6 7:-0.795886075949359 8:0.986793449550977 
1.0 1:-0.199908102766919 2:-0.428892987635802 3:-0.421388770759324 4:-0.297792575741771 5:-0.153554309312541 6:-0.4 7:-0.203281312525016 8:0.353374929098144 
-1.0 1:-0.272591738189918 2:-0.416305161208658 3:-0.475966528997867 4:-0.309644351471252 5:-0.175488455575124 6:-0.4 7:-0.280542028371788 8:0.318875502008021 
-1.0 1:-0.3215321600933 2:-0.419293758004978 3:-0.478624429707028 4:-0.34848921568674 5:-0.194846401715365 6:-0.4 7:-0.214181923859341 8:0.597590361445796 
1.0 1:-0.252649123420058 2:-0.296184634498519 3:-0.351788470103526 4:-0.33179052105236 5:0.00455664133305689 6:-0.4 7:0.928869130313966 8:-1.0 
1.0 1:-0.12269176753339 2:-0.276776441709876 3:-0.345930404046513 4:-0.341232808067414 5:-0.0427031939642188 6:-0.2 7:0.699635479951406 8:-1.0 
-1.0 1:-0.166155040962488 2:-0.220372421990423 3:-0.39690901300237 4:-0.325650259040084 5:-0.0514808773962012 6:0.0 7:0.741149425287351 8:-1.0 
1.0 1:-0.0945066319603438 2:-0.25343441377786 3:-0.351696815850922 4:-0.341542138523787 5:-0.0546046042360318 6:0.4 7:0.778827233372693 8:-1.0 
-1.0 1:-0.208407401545666 2:-0.281899742098649 3:-0.309886327067177 4:-0.288773330858957 5:-0.0896342212703547 6:0.4 7:0.651175708202183 8:-0.961489898989891 
-0.14386983492991598 1:-0.197223980961405 2:-0.190460150423311 3:-0.288016996525699 4:-0.2796855823551 5:-0.0868146571584192 6:0.4 7:0.711276332094167 8:-1.0 
1.0 1:-0.241177516699789 2:-0.247186912032201 3:-0.265121512240607 4:-0.336936302086935 5:-0.154240792877209 6:0.2 7:0.479140850888059 8:-0.664477611940305 
1.0 1:-0.251854285835492 2:-0.226894896425698 3:-0.287225430234869 4:-0.316292872775394 5:-0.124031298103 6:0.2 7:0.578246392896783 8:-0.592201462225869 
1.0 1:-0.286874677558315 2:-0.2307842201039 3:-0.316502847451367 4:-0.320619918192699 5:-0.17087293617313 6:0.2 7:0.12014902204284 8:0.191701244813278 
1.0 1:-0.27409492625403 2:-0.295785910968318 3:-0.332959435823361 4:-0.283230782298947 5:-0.145708982392114 6:0.2 7:0.199087650700558 8:0.15846994535512 
-1.0 1:-0.341231653611762 2:-0.332094524087685 3:-0.294251158626928 4:-0.293972993068019 5:-0.236895162010919 6:0.2 7:-0.495601173020543 8:1.0 
1.0 1:-0.27272642371639 2:-0.316006635247527 3:-0.303875157572262 4:-0.248201197082568 5:-0.139272588133727 6:0.4 7:-0.258585022755481 8:0.0300751879698975 
1.0 1:-0.272246661577038 2:-0.32257387142461 3:-0.287041310451451 4:-0.265024296718997 5:-0.113277646982744 6:0.4 7:0.0062060405461164 8:-0.370927318295743 
-1.0 1:-0.276543004668629 2:-0.347894965687548 3:-0.292510117921803 4:-0.289326238168785 5:-0.170849655482842 6:0.2 7:-0.32693279434059 8:0.318295739348366 
-1.0 1:-0.319512396837019 2:-0.367339212037286 3:-0.368325130683279 4:-0.319523376092585 5:-0.217668227802687 6:0.0 7:-0.82418604651164 8:1.0 
0.21580950028932508 1:-0.282081834158617 2:-0.386441980808531 3:-0.378167149954518 4:-0.274470800358562 5:-0.222019213474039 6:-0.2 7:-0.385404101326921 8:1.0 
-1.0 1:-0.404063427144118 2:-0.420919458150164 3:-0.429387219225538 4:-0.331863205545868 5:-0.333484678917261 6:-0.4 7:-0.457335329341318 8:1.0 
-1.0 1:-0.498922877435673 2:-0.481714019169354 3:-0.484696940541708 4:-0.358015545195181 5:-0.401940582419422 6:-0.4 7:-0.915577534440131 8:1.0 
-1.0 1:-0.623614825094486 2:-0.56471698404686 3:-0.570513374095022 4:-0.413336244548622 5:-0.5706925825156 6:-0.6 7:-0.932300357568541 8:1.0 
1.0 1:-0.574756013056089 2:-0.560244960855571 3:-0.560332069946245 4:-0.450204585581811 5:-0.401149259223305 6:-0.4 7:-0.768619436875566 8:0.916786979918623 
1.0 1:-0.488793352791827 2:-0.48141141729861 3:-0.530606692908973 4:-0.422772429898445 5:-0.200562557781347 6:-0.4 7:-0.465712988192547 8:0.56660979131119 
-1.0 1:-0.500888255360853 2:-0.566285702782464 3:-0.564567665341906 4:-0.466370463592986 5:-0.336571273733649 6:-0.4 7:-0.874205267938239 8:1.0 
-1.0 1:-0.385639187202948 2:-0.553387822913213 3:-0.55378510955024 4:-0.462252263324969 5:-0.212180395598375 6:-0.4 7:-0.520183787331797 8:0.787182219515901 
1.0 1:-0.202729435613711 2:-0.51854883819742 3:-0.527529791013102 4:-0.455855047389549 5:-0.145094479537161 6:-0.2 7:-0.327706057596816 8:0.6104604524306 
-1.0 1:-0.304022863802325 2:-0.550516572515303 3:-0.57562904815153 4:-0.487831941374787 5:-0.281684957654052 6:-0.4 7:-0.696508626545305 8:1.0 
-1.0 1:-0.286518088062036 2:-0.484217894701133 3:-0.502350820248961 4:-0.458080527117697 5:-0.0927668809300686 6:-0.4 7:-0.099367806775809 8:0.0464982778415581 
1.0 1:-0.161071920304608 2:-0.412719564940313 3:-0.507543422575936 4:-0.434868195968829 5:-0.0611807588808543 6:-0.2 7:0.439397201291716 8:-1.0 
1.0 1:-0.164869090230097 2:-0.340229230671604 3:-0.498851974703014 4:-0.427985033989335 5:-0.0342689373880637 6:0.0 7:0.767503889753279 8:-1.0 
-1.0 1:-0.196276978655414 2:-0.241718607481422 3:-0.486278410636988 4:-0.420013809642345 5:-0.0772824290840595 6:0.0 7:0.513775708187811 8:-0.947534102833159 
1.0 1:-0.110275075042272 2:-0.252121392711806 3:-0.46854519940382 4:-0.423523213772849 5:-0.0981235164177873 6:0.2 7:0.519984478075272 8:-0.958726827562075 
-1.0 1:-0.265594008180033 2:-0.340621260547869 3:-0.493839082509998 4:-0.428036809166727 5:-0.221615513579843 6:0.2 7:0.0322079937912358 8:-0.0793983910458351 
-1.0 1:-0.321155256500789 2:-0.295890930394176 3:-0.464343644186539 4:-0.454088461692811 5:-0.237823152610436 6:0.2 7:-0.384222737819032 8:0.262679258481993 
1.0 1:-0.225755030288964 2:-0.236334797837341 3:-0.355183590541678 4:-0.409507965882373 5:0.00388609477302237 6:0.2 7:0.749883990719244 8:-1.0 
-1.0 1:-0.316587440003976 2:-0.315515010156941 3:-0.322766559947712 4:-0.43596052144539 5:-0.200530454683381 6:0.0 7:-0.086310904872395 8:0.474631751227491 
-1.0 1:-0.383330545217896 2:-0.303886106354544 3:-0.366732834388418 4:-0.449009009878324 5:-0.289542428886714 6:0.0 7:-0.807847082494963 8:1.0 
1.0 1:-0.293362306588898 2:-0.345032128166536 3:-0.391060317071881 4:-0.432523569856791 5:-0.20166263301389 6:0.0 7:-0.435697940503439 8:0.700818330605581 
1.0 1:-0.273083334319301 2:-0.367748283989846 3:-0.343853407087491 4:-0.401746614886932 5:-0.191461052694404 6:-0.2 7:-0.430714916151807 8:0.769558101472994 
-1.0 1:-0.422863770101406 2:-0.403149016694222 3:-0.375021565585021 4:-0.378586805037963 5:-0.211349206588199 6:-0.2 7:-0.611628939192188 8:1.0 
-1.0 1:-0.490895615625517 2:-0.504589615382964 3:-0.474802393129957 4:-0.381731781209476 5:-0.452757652354947 6:-0.4 7:-0.856390352093157 8:1.0 
1.0 1:-0.521338286574998 2:-0.566234505727955 3:-0.48155804689437 4:-0.427331637431662 5:-0.50495961943536 6:-0.6 7:-0.881962130439598 8:1.0 
1.0 1:-0.661568822116559 2:-0.599641094599222 3:-0.588191189873297 4:-0.502370717336547 5:-0.573768146754064 6:-0.8 7:-0.929286551817442 8:1.0 
-1.0 1:-0.930813454143828 2:-0.760410127761955 3:-0.747261384254114 4:-0.576837913892614 5:-0.87611517237763 6:-0.8 7:-0.956757438224914 8:1.0 
1.0 1:-0.771132341189418 2:-0.750075240384454 3:-0.691309016133902 4:-0.534820554165757 5:-0.407178089856914 6:-0.8 7:-0.36639250765444 8:0.590595611285268 
0.6120814378276385 1:-0.692583560289419 2:-0.742411565513771 3:-0.730337121685487 4:-0.577160737847653 5:-0.446678717950869 6:-0.8 7:-0.511853517507225 8:0.822257053291534 
-1.0 1:-0.757444170609952 2:-0.802261454486386 3:-0.812082794832638 4:-0.60803129196114 5:-0.598193462329415 6:-0.8 7:-0.888416988416988 8:1.0 
1.0 1:-0.55016982439172 2:-0.759749229148332 3:-0.732891053996958 4:-0.605659116852407 5:-0.302825514320606 6:-0.8 7:-0.497741008038488 8:0.761789428693543 
1.0 1:-0.20162237927822 2:-0.716878281203852 3:-0.687775178493677 4:-0.59231482298402 5:-0.150510353671661 6:-0.6 7:-0.336669921874999 8:0.484917524833679 
-1.0 1:-0.291486486309258 2:-0.668931065801231 3:-0.724066363161392 4:-0.583596060399788 5:-0.0617949516537953 6:-0.4 7:-0.0794195439273725 8:0.164540399084071 
-1.0 1:-0.146445490299853 2:-0.528228981231797 3:-0.645458929092936 4:-0.558088037490299 5:0.00742167314465836 6:-0.4 7:0.29435932551571 8:-0.420418698021223 
1.0 1:0.0210301040362726 2:-0.466877846873579 3:-0.611989400719699 4:-0.558455900414758 5:-0.0432038108478477 6:-0.4 7:0.64702037258961 8:-0.999192408641228 
-0.49943115710210106 1:-0.047728228152488 2:-0.37341844718067 3:-0.610638953563337 4:-0.522307604329904 5:-0.0348540611281769 6:-0.2 7:0.769907611086669 8:-1.0 
-0.24238064171317494 1:-0.124814502421347 2:-0.194703356124036 3:-0.613553971234298 4:-0.51663649832146 5:-0.0888647598588069 6:-0.2 7:0.724813022437303 8:-0.924604634056632 
-1.0 1:-0.166940283861244 2:-0.28037976881949 3:-0.595128965417219 4:-0.56106167736265 5:-0.0849241754032672 6:0.0 7:0.78178618565772 8:-1.0 
-1.0 1:-0.20223068048404 2:-0.209113095121914 3:-0.497292480221976 4:-0.513702970924315 5:-0.0621510721931684 6:0.2 7:0.890233172019353 8:-1.0 
1.0 1:-0.118588527415311 2:-0.0454410749528401 3:-0.403602325030933 4:-0.455140026242901 5:0.0405027216431111 6:0.4 7:0.84314354450682 8:-1.0 
1.0 1:-0.0911733322178571 2:-0.0723047341264402 3:-0.311922395424705 4:-0.443385806447006 5:0.06416959107527 6:0.4 7:0.936926790024134 8:-1.0 
1.0 1:0.00722342524528274 2:-0.0585492624811086 3:-0.111020797731767 4:-0.407274285262849 5:0.130140432860976 6:0.6 7:0.943056674724687 8:-1.0 
-1.0 1:-0.0812199477758661 2:-0.143769434065206 3:-0.229501319443016 4:-0.42736939332618 5:-0.0763270847979088 6:0.6 7:0.49000644745325 8:-0.476097178683372 
1.0 1:0.109729077599362 2:-0.0431559667839208 3:-0.0682487450088023 4:-0.274938586622758 5:0.242585539090594 6:0.6 7:0.929454055268482 8:-1.0 
-1.0 1:0.0239353601921095 2:-0.0435460741899896 3:0.0228544505017096 4:-0.235138556921079 5:0.112625063389733 6:0.4 7:0.752653818406679 8:-0.996510535498588 
-1.0 1:0.00737082449184334 2:-0.036285327564165 3:-0.00863911863266986 4:-0.16959857227451 5:0.0880586771084846 6:0.4 7:0.898588065546737 8:-1.0 
-1.0 1:-0.0543815698022859 2:-0.0121380513575383 3:-0.0307904613379075 4:-0.0373943742889303 5:0.0507601913899698 6:0.4 7:0.882187635105927 8:-1.0 
1.0 1:0.194952526199411 2:0.0929986127463893 3:0.0327654480133841 4:-0.0269140261553149 5:0.263256292026233 6:0.6 7:0.929793140503267 8:-1.0 
-1.0 1:-0.119314511805405 2:0.0119319486418816 3:-0.0534371848557073 4:-0.0314468870366597 5:-0.0242593153635001 6:0.4 7:0.425965170920488 8:-0.589187929628343 
-1.0 1:-0.0551368901892484 2:-0.00167886637936132 3:-0.0187252426743509 4:0.0672197797777989 5:0.0380415548121882 6:0.6 7:0.626211709965107 8:-0.862002874940111 
-0.3263424817413399 1:0.0404508532996459 2:0.0504483940326221 3:0.039541083222455 4:0.0834963794826431 5:0.193736400732303 6:0.6 7:0.900618952140183 8:-1.0 
-1.0 1:0.174170728551798 2:0.0973248126499662 3:0.133058088907251 4:0.123113834775635 5:0.338599906449802 6:0.6 7:0.96656441717791 8:-1.0 
-1.0 1:-0.069031399078664 2:0.1011515672916 3:0.0871138279810051 4:0.0689975116203574 5:0.0659174778615037 6:0.4 7:0.651156920488009 8:-0.721304441107063 
-1.0 1:0.235118497737592 2:0.0937144151148168 3:0.186945441388102 4:0.13097803313171 5:0.337156964877552 6:0.4 7:0.992910879629633 8:-1.0 
-1.0 1:-0.0793906885997655 2:-0.0694228410929584 3:0.00278337394641781 4:0.0242513401579105 5:-0.231725156859707 6:0.2 7:0.306423611111109 8:-0.122352723573472 
1.0 1:-0.248535458306704 2:-0.11863015554594 3:-0.0473586419391906 4:-0.0031679893366916 5:-0.262814888917347 6:0.2 7:0.076392974199514 8:0.164421637802011 
1.0 1:-0.283961732294219 2:-0.0559888505560853 3:-0.0286610695338433 4:0.053485008357929 5:-0.0249143474392943 6:0.2 7:0.346571136131011 8:-0.327988026512715 
1.0 1:-0.189937514974965 2:-0.150911315157837 3:0.02670598724885 4:0.0590029696519132 5:-0.0194755994731693 6:0.4 7:0.448076127430702 8:-0.358638422921513 
-1.0 1:-0.296437430506449 2:-0.0251410894751485 3:-0.0385336613367002 4:0.0894394245062782 5:0.101668839458304 6:0.4 7:0.775229935743982 8:-0.741775733993626 
-1.0 1:-0.260911377828651 2:-0.204070587878882 3:-0.152218875911201 4:-0.0368404952573093 5:-0.328451288188398 6:0.2 7:-0.254637865311309 8:0.753580609621739 
1.0 1:-0.209716924286562 2:-0.280081270175364 3:-0.164770212021361 4:-0.0536755706041376 5:-0.242496172184279 6:0.2 7:-0.182465057179169 8:0.649283878075662 
-0.667195658603551 1:-0.394984782716117 2:-0.422235655385919 3:-0.214311721744335 4:-0.118359908178788 5:-0.320446777283971 6:0.2 7:-0.509529860228722 8:1.0 
1.0 1:-0.50674710966048 2:-0.434761439919793 3:-0.35128267067571 4:-0.124299556914715 5:-0.404354802061022 6:0.0 7:-0.930876747141047 8:1.0 
-1.0 1:-0.810188200547358 2:-0.697095243586737 3:-0.416538571729584 4:-0.303022471184362 5:-0.670966035587542 6:-0.2 7:-0.94595942800133 8:1.0 
1.0 1:-0.620560232137951 2:-0.552970535253935 3:-0.454775865062922 4:-0.307152219627843 5:-0.512767221063285 6:-0.4 7:-0.910922076879862 8:1.0 
1.0 1:-0.470515640957086 2:-0.423798133923372 3:-0.435573520128755 4:-0.253728290851148 5:-0.116561172051618 6:-0.2 7:-0.401492657090122 8:0.423642636644274 
-1.0 1:-0.380118975205697 2:-0.483545584803418 3:-0.502772560773617 4:-0.253696366874417 5:-0.0850503818605874 6:-0.2 7:-0.325736297247409 8:0.337933539132012 
-1.0 1:-0.399174232013512 2:-0.566930129363177 3:-0.522815737772572 4:-0.365983578559866 5:-0.277298565268188 6:-0.2 7:-0.619047619047618 8:0.547497587205297 
-0.4391284030345698 1:-0.201556784578168 2:-0.63868955979497 3:-0.6357132299714 4:-0.336137260387738 5:-0.263408561917795 6:-0.2 7:-0.505429523707127 8:0.645388115262645 
1.0 1:-0.221323208370513 2:-0.528202921164205 3:-0.527390901542427 4:-0.373663927120974 5:-0.273003193327383 6:-0.4 7:-0.61601779755284 8:0.761314113308753 
-1.0 1:-0.467400895603341 2:-0.58706491355684 3:-0.549451425671081 4:-0.457601208943513 5:-0.358003634889124 6:-0.6 7:-0.781249999999994 8:1.0 
-1.0 1:-0.494262576429926 2:-0.546923488041523 3:-0.611348580767011 4:-0.519184127641187 5:-0.290694922660072 6:-0.8 7:-0.633903345724909 8:1.0 
1.0 1:-0.429122439861677 2:-0.517453837668537 3:-0.644962006287468 4:-0.508546403962124 5:-0.305313552166889 6:-0.8 7:-0.853382899628244 8:1.0 
1.0 1:-0.460247147853244 2:-0.411975338576618 3:-0.718575981197984 4:-0.606458052318212 5:-0.332105960246099 6:-1.0 7:-0.867396118275364 8:1.0 
1.0 1:-0.440836519991761 2:-0.411954887830587 3:-0.619743512562765 4:-0.516658226465317 5:-0.286602221516345 6:-1.0 7:-0.740609496810772 8:1.0 
-1.0 1:-0.425089082935117 2:-0.558275453422055 3:-0.659145207677246 4:-0.527201849575483 5:-0.339863880936355 6:-1.0 7:-0.800475059382421 8:1.0 
1.0 1:-0.339988378189171 2:-0.521547584747049 3:-0.583189123773388 4:-0.541050867503101 5:-0.141884135890789 6:-0.8 7:-0.178857142857149 8:0.401901804773926 
-1.0 1:-0.390380889710052 2:-0.511863123861047 3:-0.585148959926604 4:-0.586350419265694 5:-0.286346171742819 6:-0.8 7:-0.656000000000001 8:1.0 
-1.0 1:-0.3615983202648 2:-0.513463745249199 3:-0.484813179369731 4:-0.63144660143009 5:-0.272711879834401 6:-1.0 7:-0.639034273172377 8:1.0 
-0.5527212770076619 1:-0.34309318349338 2:-0.489299260961851 3:-0.475153434025079 4:-0.548689347060421 5:-0.217389757071776 6:-1.0 7:-0.498241985522247 8:0.919259882254017 
1.0 1:-0.208275664209215 2:-0.393470923236953 3:-0.525072503765899 4:-0.526643707360323 5:-0.0794337304944395 6:-0.8 7:0.0469493278179935 8:-0.0335807705903082 
0.015025682591147636 1:-0.222279560199928 2:-0.347337335661342 3:-0.502102053976853 4:-0.473336942587068 5:0.00995412736398493 6:-0.6 7:0.848052262279222 8:-1.0 
-1.0 1:-0.248971458007033 2:-0.396954716435983 3:-0.507887173533421 4:-0.485314293763721 5:-0.227823394810491 6:-0.6 7:-0.200096781998559 8:0.57527272727275 
1.0 1:-0.177708177405457 2:-0.33281617433005 3:-0.472548425121659 4:-0.379518197360684 5:-0.121085458659069 6:-0.4 7:0.242680861359781 8:-0.0901818181818023 
-1.0 1:-0.237311103502486 2:-0.358970923988843 3:-0.483401617961929 4:-0.395799347539657 5:-0.210492550286563 6:-0.4 7:-0.217033631744502 8:0.600727272727289 
1.0 1:-0.131593434313879 2:-0.20343028136779 3:-0.349663070978909 4:-0.392510305133483 5:0.0935646968877448 6:-0.2 7:0.886981677917074 8:-1.0 
1.0 1:-0.0647962159834669 2:-0.169352819668341 3:-0.276436346783572 4:-0.348083910887671 5:0.233334655309137 6:0.0 7:0.876340694006307 8:-1.0 
-0.06051881065848594 1:0.120711095454732 2:-0.0671224191814275 3:-0.22080987930932 4:-0.278995360099832 5:0.212095412467761 6:0.2 7:0.522005357826253 8:-1.0 
0.04846080823044505 1:0.196803612231618 2:0.0296589586836786 3:-0.126654978755896 4:-0.220534016008471 5:0.295738948375571 6:0.4 7:0.760948589233167 8:-1.0 
-1.0 1:0.352726436777495 2:0.0905055242303876 3:-0.0670404707484156 4:-0.167093435198585 5:0.311381400269719 6:0.4 7:0.897719974309571 8:-1.0 
-1.0 1:0.313532186704438 2:0.136567340661028 3:0.0456036402706153 4:-0.0747553607007676 5:0.392665242575122 6:0.6 7:0.914590747330966 8:-1.0 
-1.0 1:0.0794658681379234 2:0.0283268105366961 3:-0.0510070708912407 4:-0.111973769305589 5:0.0625298836410413 6:0.6 7:0.680780461906029 8:-0.748496993987974 
-1.0 1:-0.0174552685145666 2:0.0868274116607946 3:-0.0178208721186294 4:-0.108126733807877 5:-0.0572605922040355 6:0.4 7:0.602203344836742 8:-0.66375608359576 
-1.0 1:-0.0820546755151952 2:0.0936512504036706 3:0.027325638498203 4:-0.061300786297423 5:0.0135439712762451 6:0.4 7:0.746711658976656 8:-0.777341559169933 
1.0 1:-0.324587491940842 2:0.0313954693707925 3:-0.0567712255588222 4:-0.117708628433035 5:-0.278033732457944 6:0.2 7:0.151938269336763 8:-0.0268546903739987 
1.0 1:-0.462536452163071 2:-0.0868836153591824 3:-0.0962798918801913 4:-0.0909312944872409 5:-0.233765697235564 6:0.2 7:-0.166624589750055 8:0.144791816741099 
1.0 1:-0.408355654996753 2:-0.19937582885985 3:-0.153486411427248 4:-0.141087027022656 5:-0.262022893729201 6:0.0 7:-0.390471190444942 8:1.0 
1.0 1:-0.344012208969401 2:-0.218789717392338 3:-0.0705377022118453 4:-0.0882836621669737 5:-0.165753055862263 6:0.2 7:-0.518755118755115 8:0.715637771563773 
1.0 1:-0.244040146133492 2:-0.194750858356134 3:-0.00949758045318116 4:-0.0106561305692064 5:0.107980161562717 6:0.2 7:0.495167895167898 8:-0.615831361583126 
-0.3510490044434837 1:-0.133079779405098 2:-0.280169556864412 3:6.54543863381818E-4 4:-0.0283541189433971 5:-0.0316955888880958 6:0.0 7:0.276727509778357 8:-0.655484558040479 
-1.0 1:-0.13323310633143 2:-0.370140160546092 3:-0.0971702092448656 4:-0.0591909686337917 5:-0.0697985508416465 6:-0.2 7:0.274119947848763 8:-0.651224707135264 
1.0 1:-0.132136900655195 2:-0.334143787844897 3:-0.189541565094726 4:-0.103287006615643 5:-0.151506143754239 6:-0.4 7:0.0583441981746979 8:-0.29872204472843 
1.0 1:0.0730067674997843 2:-0.160866392060988 3:-0.0960169433323347 4:0.0484274078111071 5:0.248083030989541 6:-0.4 7:0.876776119402989 8:-1.0 
-1.0 1:-0.176710464973263 2:-0.255861569752836 3:-0.209598555761175 4:-0.0102286414875106 5:-0.0276594737525018 6:-0.6 7:0.434312928330809 8:-0.522053609417095 
-1.0 1:-0.0968026373586077 2:-0.131768311439522 3:-0.237585334736204 4:0.0319399210794564 5:0.0111518363339067 6:-0.4 7:0.64362876059937 8:-0.777620195716916 
-1.0 1:-0.178746083358436 2:-0.185253775797761 3:-0.355085332427842 4:-0.079132194660699 5:-0.178295595031275 6:-0.4 7:0.20788575761405 8:-0.253834115805943 
1.0 1:-0.0690329052544482 2:-0.113058915292094 3:-0.267703006471677 4:-0.105053911246005 5:-0.0412316711263979 6:-0.4 7:0.565386611312924 8:-0.598872506504773 
-1.0 1:-0.246952724322424 2:-0.0965710472412872 3:-0.219487922057649 4:-0.10708740904589 5:0.0252630492719268 6:-0.2 7:0.836569579288021 8:-1.0 
-1.0 1:-0.171405313580979 2:-0.208708316479553 3:-0.25709847551456 4:-0.163321131905508 5:-0.0487866862587378 6:-0.2 7:0.726913970007889 8:-0.915585752522126 
-1.0 1:-0.319192338388671 2:-0.253378405317137 3:-0.234672144857627 4:-0.246235027157362 5:-0.252864485547642 6:-0.2 7:0.0948697711128614 8:-0.0912085649577893 
1.0 1:-0.127578516570488 2:-0.181583526525685 3:-0.175425766408896 4:-0.258464619128637 5:-0.0310226893900393 6:-0.2 7:0.739050760491115 8:-0.960441232407761 
-1.0 1:-0.305098486538797 2:-0.226330722579201 3:-0.211817811439164 4:-0.263529186307591 5:-0.242399328449286 6:-0.4 7:-0.402038505096252 8:0.574743248383404 
-1.0 1:-0.499849111482671 2:-0.466323923641983 3:-0.30400342518392 4:-0.307352651612869 5:-0.440741930927147 6:-0.4 7:-0.720494121148985 8:1.0 
1.0 1:-0.491651564448177 2:-0.413251181346073 3:-0.389517603388317 4:-0.332387601939297 5:-0.345165032945025 6:-0.4 7:-0.732102991516595 8:1.0 
1.0 1:-0.287840132330296 2:-0.375952320130998 3:-0.316970553049284 4:-0.231014798141537 5:-0.103404259066105 6:-0.2 7:-0.128144069057897 8:0.15352523988319 
1.0 1:-0.168248234936028 2:-0.174741141056264 3:-0.194215289703788 4:-0.13546866921722 5:0.271713720795179 6:-0.2 7:0.692360163710773 8:-1.0 
-1.0 1:-0.0167743442098039 2:-0.192761385034359 3:-0.150260349553993 4:-0.100774140412936 5:0.213747263646566 6:0.0 7:0.807766990291265 8:-1.0 
-1.0 1:0.270347048576973 2:-0.139371513034709 3:-0.201890075351266 4:-0.0555957647943734 5:0.33782103004799 6:0.0 7:0.942277691107646 8:-1.0 
-1.0 1:0.296083166153709 2:-0.11757799347621 3:-0.143182682930201 4:-0.113981568624286 5:0.216665767160132 6:0.2 7:0.837850614560354 8:-1.0 
-1.0 1:0.264476203110394 2:-4.86613822332727E-4 3:-0.127830155804475 4:-0.0684282428926398 5:0.225950143457566 6:0.2 7:0.909783160490249 8:-1.0 
-1.0 1:-0.07126533634481 2:-0.138158331890496 3:-0.136490381529039 4:-0.109643479314101 5:-0.0676403378489355 6:0.0 7:0.622887809123214 8:-0.677508763348819 
-1.0 1:-0.0982493114894912 2:-0.0567231801496736 3:-0.165916232152553 4:-0.0865569353081725 5:-0.0576882396626079 6:0.2 7:0.668609492089926 8:-0.744517812015977 
-1.0 1:-0.247935409607733 2:0.0301420355006463 3:-0.202420187396878 4:-0.189192801001966 5:-0.100557682628932 6:0.2 7:0.632286294733556 8:-0.661848017190859 
1.0 1:-0.225156607034756 2:0.0621112437218552 3:-0.172257792344775 4:-0.134328421961829 5:-0.0358111794502881 6:0.2 7:0.68282425852147 8:-0.716631726065685 
-1.0 1:-0.277260346340055 2:0.00662926286934495 3:-0.104817891475168 4:-0.144394261175177 5:-0.0334555031159743 6:0.4 7:0.667716796551153 8:-0.847535505430239 
-1.0 1:-0.242198938364681 2:-0.186579573513277 3:-0.198332014637013 4:-0.136319925761546 5:-0.17927835266991 6:0.4 7:-0.0239277652370192 8:0.649140546006044 
1.0 1:-0.278608392783872 2:-0.227791284388614 3:-0.151478736895351 4:-0.17427414153014 5:-0.195565021210035 6:0.4 7:-0.543588217792321 8:0.978766430738116 
1.0 1:-0.238363254606853 2:-0.298181212746639 3:-0.0583778136529121 4:-0.185617593133813 5:-0.122308749691639 6:0.4 7:-0.0815474533815711 8:0.320525783619799 
-1.0 1:-0.288687176471528 2:-0.316008174727457 3:-0.0600159223318681 4:-0.183369223445325 5:-0.138214086942713 6:0.2 7:-0.137767881992772 8:0.292002479851209 
-1.0 1:-0.393955136179617 2:-0.417299911689833 3:-0.163104592472632 4:-0.175975767390973 5:-0.286310110535469 6:0.0 7:-0.81166787702736 8:1.0 
1.0 1:-0.438987342411934 2:-0.424020452399361 3:-0.343522719512974 4:-0.266018845209344 5:-0.425160698308359 6:-0.2 7:-0.828766062858022 8:1.0 
