svm_type c_svc
kernel_type rbf
gamma 0.16666666666666666
nr_class 2
total_sv 60
rho -1.0157853780005897
label 0 1
nr_sv 54 6
SV
0.025854676631632392 1:0.351015627577749 2:0.604395604395604 3:0.012961174271195 4:0.0128245885205073 5:0.0139264390470118 6:0.0341200946983284 
0.03716036255722758 1:0.404877687555812 2:0.56043956043956 3:0.0390471727106519 4:0.0392214515065574 5:0.0377108573416034 6:0.0751703852500179 
0.12220623012156763 1:0.350976064665884 2:0.549450549450549 3:0.00414873000014418 4:0.00413336619783194 5:0.00398469653933105 6:0.0243776454551976 
0.05358737820741316 1:0.492471647597063 2:0.384615384615385 3:0.192329364208284 4:0.193517015475865 5:0.190878789635383 6:0.229557357055743 
0.021129740777321545 1:0.393815042659624 2:0.373626373626374 3:0.0263436993104245 4:0.0264702838000086 5:0.0262920990087531 6:0.0479374417103092 
0.019115701511020294 1:0.433021371370146 2:0.340659340659341 3:0.0699574000834979 4:0.0708899537307631 5:0.0736826850617356 6:0.0907812612095559 
0.04821533515961226 1:0.400839024169105 2:0.340659340659341 3:0.0291399881087776 4:0.0302860486877906 5:0.0291490348385601 6:0.0484683262787861 
0.0444050180731979 1:0.390457622440234 2:0.340659340659341 3:0.0205135083800011 4:0.0206548741085182 5:0.020183177786795 6:0.0381089030776957 
0.027638522502150615 1:0.411925843258007 2:0.32967032967033 3:0.0433685478888043 4:0.0427892577055411 5:0.0466204857689409 6:0.0587416600903939 
0.026808019219298963 1:0.422836605613339 2:0.32967032967033 3:0.0569379988195156 4:0.0579936549529966 5:0.0599153672250884 6:0.070722433460076 
0.27833520056208627 1:0.378514999046107 2:0.296703296703297 3:0.0330260027640617 4:0.0333228768409081 5:0.0323343574285549 6:0.0192840232441352 
0.10957878890369484 1:0.406138137961457 2:0.252747252747253 3:0.0594617308495172 4:0.0602344276521313 5:0.0602747666801925 6:0.0308343496664036 
0.18760914194114756 1:0.42804649403622 2:0.252747252747253 3:0.0861734200653587 4:0.0876053359630307 5:0.0851747724769579 6:0.0553554774374058 
0.1974932850471791 1:0.404603473971187 2:0.549450549450549 3:0.10752507021004 4:0.112610022429207 5:0.109095124920294 6:0.0645526938804792 
0.6939106041189271 1:0.44791107588585 2:0.538461538461538 3:0.168413308264832 4:0.167599360350114 5:0.168387339864356 6:0.100423272831624 
0.7234098723941418 1:0.473215565351498 2:0.527472527472527 3:0.217960447921915 4:0.218640775981458 5:0.216291809170483 6:0.166425138101729 
0.17577304470733704 1:0.46178976430954 2:0.527472527472527 3:0.199222676648 4:0.20219069524783 5:0.197568256912643 6:0.143467967572997 
0.11374679729346923 1:0.386887284381473 2:0.527472527472527 3:0.0961227495213281 4:0.0960998716151044 5:0.0998058083589357 6:0.0457565105100796 
0.19055899685828584 1:0.489685677775516 2:0.406593406593407 3:0.223206218994285 4:0.221502043505175 5:0.229201205727204 6:0.243905588636201 
0.022081345941922095 1:0.408637325670173 2:0.340659340659341 3:0.0715354689259032 4:0.0737241169543498 5:0.0734595095936467 6:0.0664323122175192 
0.017618686723273203 1:0.413037472029665 2:0.32967032967033 3:0.0735776415645742 4:0.0740658492146898 5:0.0763376036171816 6:0.0681971447019155 
0.0810672366324203 1:0.311550810740969 2:0.56043956043956 3:0.010439484787585 4:0.0106185097908239 5:0.0101898440670106 6:0.0172035296649688 
0.019006645907068485 1:0.46052941387335 2:0.461538461538462 3:0.177280323366397 4:0.173681745188086 5:0.18310822561011 6:0.136293851782768 
0.06660878177065567 1:0.527440622313436 2:0.417582417582418 3:0.304084382477002 4:0.304576917495645 5:0.306214132514057 6:0.256202023100653 
0.026132743581537415 1:0.469494086630468 2:0.417582417582418 3:0.195195611706952 4:0.194376112664296 5:0.196556721349487 6:0.157816199153454 
0.02077355018535249 1:0.488497842025142 2:0.406593406593407 3:0.22098909292717 4:0.220598329355196 5:0.221074140629529 6:0.194088528588851 
0.08006290341748169 1:0.392815202100381 2:0.549450549450549 3:0.0819177807177924 4:0.0815586536717389 5:0.0814329604080923 6:0.0577085874166009 
0.036859543500542914 1:0.489745706802542 2:0.472527472527473 3:0.250629437916589 4:0.24830167746858 5:0.256703959190772 6:0.206600186527011 
0.05034666136144696 1:0.511833950019471 2:0.417582417582418 3:0.285882596202295 4:0.290360260570376 5:0.285789229609878 6:0.255384173900567 
0.26556391710771604 1:0.49870305811246 2:0.384615384615385 3:0.247471589796007 4:0.248162018311907 5:0.254886673236334 6:0.206600186527011 
0.29587976174079655 1:0.513265494201395 2:0.373626373626374 3:0.277446994831781 4:0.277546409426601 5:0.284282070604603 6:0.220948418107468 
0.02145188231417312 1:0.385893031588617 2:0.340659340659341 3:0.069360418496178 4:0.0694789852727351 5:0.0714509303808475 6:0.039873735562092 
0.05669555760034852 1:0.368434998647492 2:0.571428571428571 3:0.0930765913651874 4:0.094311900205865 5:0.0947075531853226 6:0.0536193414161705 
0.1554193304702149 1:0.386977326606624 2:0.296703296703297 3:0.0686883783597025 4:0.0699441713718094 5:0.0711958727030317 6:0.0389124040462013 
0.15305149505889726 1:0.408560922698708 2:0.296703296703297 3:0.0913229373047524 4:0.0892791618847444 5:0.0933713987594922 6:0.0594447234378363 
0.135187113173955 1:0.376453093518747 2:0.296703296703297 3:0.0590693940659058 4:0.0592273921080287 5:0.0612051475276796 6:0.0310926178348519 
0.06881138393569662 1:0.336588042391448 2:0.472527472527473 3:0.0699068103018875 4:0.069042994083181 5:0.0701089791896122 6:0.0357701413300811 
0.20654860368700606 1:0.476152686358415 2:0.461538461538462 3:0.217673799634338 4:0.222748126254265 5:0.219280041736711 6:0.152076906521271 
0.02251325500062231 1:0.451493415540777 2:0.417582417582418 3:0.175858740941221 4:0.173810279688467 5:0.180279404092516 6:0.143467967572997 
0.023127859835357468 1:0.456512001888181 2:0.395604395604396 3:0.191928344586327 4:0.189822944502829 5:0.195982841574401 6:0.15735705574288 
0.0462913158105191 1:0.318771811000295 2:0.395604395604396 3:0.0559922381411689 4:0.0577083002749665 5:0.0557098139238305 6:0.0257837721500825 
0.05358951609929898 1:0.329161695663587 2:0.395604395604396 3:0.0629781113686425 4:0.0645156893598031 5:0.0630398237783317 6:0.031221751919076 
0.02151632744816314 1:0.509697505424829 2:0.384615384615385 3:0.260852643335301 4:0.25948798252307 5:0.266326589762912 6:0.242685988951862 
0.3219027392950323 1:0.317124765557816 2:0.384615384615385 3:0.0523306373465012 4:0.0544903490779264 5:0.0544229320039418 6:0.0238467608867207 
0.029680045685865734 1:0.360267064032272 2:0.340659340659341 3:0.0703974335689506 4:0.0712483582050876 5:0.070395919077155 6:0.0492144343209699 
0.03365442199121252 1:0.371810785623485 2:0.340659340659341 3:0.079874423937924 4:0.0788089066121532 5:0.0782012636948583 6:0.0583829543008824 
0.2454003868445218 1:0.420205618701145 2:0.648351648351648 3:0.18628883753941 4:0.190799865252005 5:0.189928120108979 6:0.137728674940814 
0.033626559671426026 1:0.232671402510895 2:0.637362637362637 3:0.0369299053021035 4:0.036309472208226 5:0.0379427279577996 6:0.0143338833488773 
0.029674110095484003 1:0.32644608066147 2:0.615384615384615 3:0.0800756160545904 4:0.0805016869700416 5:0.0814648426178193 6:0.0573785780902504 
0.06661152574094185 1:0.37818380418745 2:0.571428571428571 3:0.0969878888041117 4:0.0975959101680031 5:0.0979798272563909 6:0.0918430303465098 
0.06740239453973362 1:0.402739894688914 2:0.571428571428571 3:0.121151254480803 4:0.121643753653024 5:0.121166888876007 6:0.0880120525145276 
0.042490338311921706 1:0.364852701084968 2:0.56043956043956 3:0.0901801532038641 4:0.0935002103278004 5:0.0903773694278593 6:0.0774661023028912 
0.048128490396868936 1:0.377241884088963 2:0.56043956043956 3:0.10087530999237 4:0.102027939852871 5:0.102996927714335 6:0.0989884496735777 
0.03868685253581397 1:0.115980082938133 2:0.417582417582418 3:0.00181983148150837 4:0.00178829826612729 5:0.00181774969566982 6:0.0040031566109477 
-1.0 1:0.514916963292263 2:0.450549450549451 3:0.29829677238242 4:0.298015995853908 5:0.302591154135992 6:0.252500179352895 
-1.0 1:0.440601790759164 2:0.450549450549451 3:0.159238813613003 4:0.161228015835769 5:0.16195003188221 6:0.123380443360356 
-1.0 1:0.430623920997444 2:0.450549450549451 3:0.143387014439342 4:0.14352337402646 5:0.145895890093328 6:0.103335963842456 
-1.0 1:0.411111643346152 2:0.450549450549451 3:0.114866510602767 4:0.116682363330118 5:0.114738276041969 6:0.0798909534399885 
-1.0 1:0.382903675226011 2:0.450549450549451 3:0.0798597466852859 4:0.0798808036220722 5:0.0773491391803374 6:0.0502044623000215 
-1.0 1:0.364769982937792 2:0.450549450549451 3:0.0613766467040009 4:0.0616840462116522 5:0.0635731261955829 6:0.0379654207618911 
