svm_type c_svc
kernel_type rbf
gamma 0.14285714285714285
nr_class 2
total_sv 9
rho -1.0020544855593005
label 0 1
nr_sv 7 2
SV
0.006444923457543944 1:0.108036012004001 2:0.982327442480827 3:0.978659553184395 4:1.0 5:0.0 6:0.69392523364486 7:11.0 
0.007705925588387681 1:0.110236745581861 2:0.994664888296099 3:0.994331443814605 4:1.0 5:0.0 6:0.981642189586115 7:11.0 
0.8782708649154916 1:0.737245748582861 2:0.930643547849283 3:0.927975991997333 4:1.0 5:0.0 6:0.127837116154873 7:11.0 
0.0476144911457569 1:0.111670556852284 2:0.906968989663221 3:0.998332777592531 4:1.0 5:0.0 6:0.248998664886515 7:11.0 
0.022780189539603854 1:0.960320106702234 2:0.998999666555519 3:0.982327442480827 4:1.0 5:0.0 6:0.600996284070648 7:11.0 
1.0 1:0.584194731577192 2:0.929309769923308 3:0.946315438479493 4:1.0 5:0.0 6:0.243658210947931 7:11.0 
0.037183605353216034 1:0.946315438479493 2:0.957985995331777 3:0.993997999333111 4:1.0 5:0.0 6:0.230307076101469 7:11.0 
-1.0 1:0.774258086028676 2:0.907635878626209 3:0.93997999333111 4:1.0 5:0.0 6:0.233311081441923 7:11.0 
-1.0 1:0.521507169056352 2:0.969656552184061 3:0.960320106702234 4:1.0 5:0.0 6:0.167556742323097 7:11.0 
